{"learner":{"attributes":{"scikit_learn":"{\"_estimator_type\": \"classifier\"}"},"feature_names":["factual_score","contra_score","roberta_large_contra","roberta_large_neutral","roberta_large_entail","deberta_large_contra","deberta_large_neutral","deberta_large_entail"],"feature_types":["float","float","float","float","float","float","float","float"],"gradient_booster":{"model":{"gbtree_model_param":{"num_parallel_tree":"1","num_trees":"600"},"iteration_indptr":[0,2,4,6,8,10,12,14,16,18,20,22,24,26,28,30,32,34,36,38,40,42,44,46,48,50,52,54,56,58,60,62,64,66,68,70,72,74,76,78,80,82,84,86,88,90,92,94,96,98,100,102,104,106,108,110,112,114,116,118,120,122,124,126,128,130,132,134,136,138,140,142,144,146,148,150,152,154,156,158,160,162,164,166,168,170,172,174,176,178,180,182,184,186,188,190,192,194,196,198,200,202,204,206,208,210,212,214,216,218,220,222,224,226,228,230,232,234,236,238,240,242,244,246,248,250,252,254,256,258,260,262,264,266,268,270,272,274,276,278,280,282,284,286,288,290,292,294,296,298,300,302,304,306,308,310,312,314,316,318,320,322,324,326,328,330,332,334,336,338,340,342,344,346,348,350,352,354,356,358,360,362,364,366,368,370,372,374,376,378,380,382,384,386,388,390,392,394,396,398,400,402,404,406,408,410,412,414,416,418,420,422,424,426,428,430,432,434,436,438,440,442,444,446,448,450,452,454,456,458,460,462,464,466,468,470,472,474,476,478,480,482,484,486,488,490,492,494,496,498,500,502,504,506,508,510,512,514,516,518,520,522,524,526,528,530,532,534,536,538,540,542,544,546,548,550,552,554,556,558,560,562,564,566,568,570,572,574,576,578,580,582,584,586,588,590,592,594,596,598,600],"tree_info":[0,1,0,1,0,1,0,1,0,1,0,1,0,1,0,1,0,1,0,1,0,1,0,1,0,1,0,1,0,1,0,1,0,1,0,1,0,1,0,1,0,1,0,1,0,1,0,1,0,1,0,1,0,1,0,1,0,1,0,1,0,1,0,1,0,1,0,1,0,1,0,1,0,1,0,1,0,1,0,1,0,1,0,1,0,1,0,1,0,1,0,1,0,1,0,1,0,1,0,1,0,1,0,1,0,1,0,1,0,1,0,1,0,1,0,1,0,1,0,1,0,1,0,1,0,1,0,1,0,1,0,1,0,1,0,1,0,1,0,1,0,1,0,1,0,1,0,1,0,1,0,1,0,1,0,1,0,1,0,1,0,1,0,1,0,1,0,1,0,1,0,1,0,1,0,1,0,1,0,1,0,1,0,1,0,1,0,1,0,1,0,1,0,1,0,1,0,1,0,1,0,1,0,1,0,1,0,1,0,1,0,1,0,1,0,1,0,1,0,1,0,1,0,1,0,1,0,1,0,1,0,1,0,1,0,1,0,1,0,1,0,1,0,1,0,1,0,1,0,1,0,1,0,1,0,1,0,1,0,1,0,1,0,1,0,1,0,1,0,1,0,1,0,1,0,1,0,1,0,1,0,1,0,1,0,1,0,1,0,1,0,1,0,1,0,1,0,1,0,1,0,1,0,1,0,1,0,1,0,1,0,1,0,1,0,1,0,1,0,1,0,1,0,1,0,1,0,1,0,1,0,1,0,1,0,1,0,1,0,1,0,1,0,1,0,1,0,1,0,1,0,1,0,1,0,1,0,1,0,1,0,1,0,1,0,1,0,1,0,1,0,1,0,1,0,1,0,1,0,1,0,1,0,1,0,1,0,1,0,1,0,1,0,1,0,1,0,1,0,1,0,1,0,1,0,1,0,1,0,1,0,1,0,1,0,1,0,1,0,1,0,1,0,1,0,1,0,1,0,1,0,1,0,1,0,1,0,1,0,1,0,1,0,1,0,1,0,1,0,1,0,1,0,1,0,1,0,1,0,1,0,1,0,1,0,1,0,1,0,1,0,1,0,1,0,1,0,1,0,1,0,1,0,1,0,1,0,1,0,1,0,1,0,1,0,1,0,1,0,1,0,1,0,1,0,1,0,1,0,1,0,1,0,1,0,1,0,1,0,1,0,1,0,1,0,1,0,1,0,1,0,1,0,1,0,1,0,1,0,1,0,1,0,1,0,1,0,1,0,1,0,1,0,1,0,1,0,1,0,1,0,1,0,1,0,1,0,1,0,1,0,1,0,1,0,1,0,1,0,1,0,1,0,1,0,1,0,1,0,1,0,1,0,1,0,1,0,1,0,1],"trees":[{"base_weights":[-3.9229844E-2,8.386606E-1,-8.307411E-1,9.191804E-1,1.7592593E-1,-1.5789473E-1,-8.801572E-1,9.890311E-2,8.015038E-1,6.875E-1,-2.2950819E-1,4E-1,-5.106383E-1,-4.4E-1,-9.019608E-1,8.9873415E-1,6.544118E-1,-5E-2,7.234042E-1,-3.272727E-1,5.714286E-1,-1.4285715E-1,8.235294E-1,-2.4528302E-1,-8.1395346E-1,-8.75E-1,-2.2857143E-1,-9.4728434E-1,-8.1686044E-1,2.7272728E-1,9.119171E-1,4.864865E-1,7.1E-1,7.922078E-1,3.6842105E-1,6.666667E-2,-5.8208954E-1,7.777778E-2,1.4285715E-1,1.4285715E-1,-7.777778E-2,8.75E-2,-0E0,7.5E-2,-4.0425533E-1,-0E0,-8.5365856E-1,-3.3333334E-1,-9.2857145E-2,-3.125E-1,5E-1,-9.4871795E-1,-3.3333334E-1,-8.328358E-1,-2E-1,7.1428575E-2,-3.3333335E-2,9.6551724E-2,8.2051285E-2,6.065574E-2,-6.6666673E-3,2.0000001E-2,7.291667E-2,4.814815E-2,9.2307694E-2,-3.3333335E-2,6.0000002E-2,-3.3333335E-2,7.647059E-2,-6.451613E-2,1.4285715E-2,-2.0000001E-2,5E-2,3.3333335E-2,-6.0000002E-2,3.3333335E-2,-4.883721E-2,-8.9189194E-2,-3.3333335E-2,-0E0,-5E-2,-3.9285716E-2,2.0000001E-2,-0E0,6.666667E-2,-3.3333335E-2,-9.5016085E-2,-5E-2,-0E0,-8.419453E-2,-2.857143E-2,4.2857144E-2,-4.6666667E-2],"categories":[],"categories_nodes":[],"categories_segments":[],"categories_sizes":[],"default_left":[0,0,0,0,0,0,0,0,0,0,0,0,0,0,0,0,0,0,0,0,0,0,0,0,0,0,0,0,0,0,0,0,0,0,0,0,0,0,0,0,0,0,0,0,0,0,0,0,0,0,0,0,0,0,0,0,0,0,0,0,0,0,0,0,0,0,0,0,0,0,0,0,0,0,0,0,0,0,0,0,0,0,0,0,0,0,0,0,0,0,0,0,0],"id":0,"left_children":[1,3,5,7,9,11,13,-1,15,17,19,21,23,25,27,29,31,-1,33,35,37,39,41,43,45,47,49,51,53,55,57,59,61,63,65,67,69,-1,71,73,-1,-1,-1,-1,75,-1,77,79,-1,81,83,85,87,89,91,-1,-1,-1,-1,-1,-1,-1,-1,-1,-1,-1,-1,-1,-1,-1,-1,-1,-1,-1,-1,-1,-1,-1,-1,-1,-1,-1,-1,-1,-1,-1,-1,-1,-1,-1,-1,-1,-1],"loss_changes":[1.4442686E3,5.2427856E1,3.6202637E1,6.4283447E0,2.2558023E1,1.51605835E1,9.372864E0,0E0,4.167206E0,2.408245E0,4.9635086E0,7.0151253E0,3.5832062E0,4.398571E0,2.963684E0,1.3811798E0,9.241104E-1,0E0,8.5606766E-1,5.5598373E0,5.079365E-1,2.6507936E0,7.205887E-1,4.496086E0,6.9483757E-1,1.5476131E-1,2.2964287E0,2.3474121E-1,3.2233887E0,1.7099568E0,1.5335083E-1,2.4978886E0,8.3166885E-1,1.1211376E0,1.7438596E0,6.537255E0,1.623908E0,0E0,5.285714E-1,1.6857142E0,0E0,0E0,0E0,0E0,1.6208148E0,0E0,1.1052513E-1,1.6666666E-1,0E0,1.3964286E0,3.3333337E-1,2.3730469E-1,1.6666666E-1,1.4290771E0,1.8761905E0,0E0,0E0,0E0,0E0,0E0,0E0,0E0,0E0,0E0,0E0,0E0,0E0,0E0,0E0,0E0,0E0,0E0,0E0,0E0,0E0,0E0,0E0,0E0,0E0,0E0,0E0,0E0,0E0,0E0,0E0,0E0,0E0,0E0,0E0,0E0,0E0,0E0,0E0],"parents":[2147483647,0,0,1,1,2,2,3,3,4,4,5,5,6,6,8,8,9,9,10,10,11,11,12,12,13,13,14,14,15,15,16,16,18,18,19,19,20,20,21,21,22,22,23,23,24,24,25,25,26,26,27,27,28,28,29,29,30,30,31,31,32,32,33,33,34,34,35,35,36,36,38,38,39,39,44,44,46,46,47,47,49,49,50,50,51,51,52,52,53,53,54,54],"right_children":[2,4,6,8,10,12,14,-1,16,18,20,22,24,26,28,30,32,-1,34,36,38,40,42,44,46,48,50,52,54,56,58,60,62,64,66,68,70,-1,72,74,-1,-1,-1,-1,76,-1,78,80,-1,82,84,86,88,90,92,-1,-1,-1,-1,-1,-1,-1,-1,-1,-1,-1,-1,-1,-1,-1,-1,-1,-1,-1,-1,-1,-1,-1,-1,-1,-1,-1,-1,-1,-1,-1,-1,-1,-1,-1,-1,-1,-1],"split_conditions":[7.237543E-1,9.962083E-1,3.78828E-1,5.4085E-2,2.2301902E-1,9.044096E-1,8.1961596E-1,9.890311E-2,3.037191E-1,1.0663237E-4,4.9963513E-1,1.388098E-2,9.5391333E-1,1.3953401E-3,5.489162E-2,1.5300114E-4,1.8339042E-3,-5E-2,1.7085965E-1,4.7073132E-1,5.002553E-1,3.5433571E-3,8.9955187E-1,4.9654767E-3,1.0367563E-2,1.6898664E-2,4.562792E-2,9.9300474E-1,9.821678E-2,9.3732345E-1,8.662494E-3,6.0598564E-1,4.9654767E-3,4.1875668E-2,9.976211E-1,2.9462448E-4,1.2796348E-3,7.777778E-2,5.005975E-1,9.347577E-1,-7.777778E-2,8.75E-2,-0E0,7.5E-2,3.6552688E-3,-0E0,9.741398E-1,7.967233E-1,-9.2857145E-2,8.08933E-1,2.350312E-1,4.5797285E-1,9.1690365E-3,9.8613757E-1,9.0656734E-1,7.1428575E-2,-3.3333335E-2,9.6551724E-2,8.2051285E-2,6.065574E-2,-6.6666673E-3,2.0000001E-2,7.291667E-2,4.814815E-2,9.2307694E-2,-3.3333335E-2,6.0000002E-2,-3.3333335E-2,7.647059E-2,-6.451613E-2,1.4285715E-2,-2.0000001E-2,5E-2,3.3333335E-2,-6.0000002E-2,3.3333335E-2,-4.883721E-2,-8.9189194E-2,-3.3333335E-2,-0E0,-5E-2,-3.9285716E-2,2.0000001E-2,-0E0,6.666667E-2,-3.3333335E-2,-9.5016085E-2,-5E-2,-0E0,-8.419453E-2,-2.857143E-2,4.2857144E-2,-4.6666667E-2],"split_indices":[0,7,7,0,0,0,0,0,7,5,6,5,0,6,1,5,5,0,0,0,6,5,0,6,3,3,5,3,5,3,7,0,6,0,7,5,5,0,6,3,0,0,0,0,7,0,0,0,0,0,1,7,6,3,0,0,0,0,0,0,0,0,0,0,0,0,0,0,0,0,0,0,0,0,0,0,0,0,0,0,0,0,0,0,0,0,0,0,0,0,0,0,0],"split_type":[0,0,0,0,0,0,0,0,0,0,0,0,0,0,0,0,0,0,0,0,0,0,0,0,0,0,0,0,0,0,0,0,0,0,0,0,0,0,0,0,0,0,0,0,0,0,0,0,0,0,0,0,0,0,0,0,0,0,0,0,0,0,0,0,0,0,0,0,0,0,0,0,0,0,0,0,0,0,0,0,0,0,0,0,0,0,0,0,0,0,0,0,0],"sum_hessian":[2.0765E3,9.845E2,1.092E3,8.775E2,1.07E2,7.5E1,1.017E3,5.46E2,3.315E2,4.7E1,6E1,2.9E1,4.6E1,4.9E1,9.68E2,1.965E2,1.35E2,1E0,4.6E1,5.4E1,6E0,1.3E1,1.6E1,2.55E1,2.05E1,1.5E1,3.4E1,6.25E2,3.43E2,4.5E0,1.92E2,3.6E1,9.9E1,3.75E1,8.5E0,2.15E1,3.25E1,3.5E0,2.5E0,9.5E0,3.5E0,1.5E1,1E0,3E0,2.25E1,1E0,1.95E1,2E0,1.3E1,3.1E1,3E0,6.23E2,2E0,3.34E2,9E0,2.5E0,2E0,1.15E2,7.7E1,2.95E1,6.5E0,4E0,9.5E1,1.25E1,2.5E1,2E0,6.5E0,1.4E1,7.5E0,3E1,2.5E0,1.5E0,1E0,8E0,1.5E0,2E0,2.05E1,1.75E1,2E0,1E0,1E0,2.7E1,4E0,1E0,2E0,2E0,6.21E2,1E0,1E0,3.28E2,6E0,2.5E0,6.5E0],"tree_param":{"num_deleted":"0","num_feature":"8","num_nodes":"93","size_leaf_vector":"1"}},{"base_weights":[2.2147328E-2,8.2300884E-1,-8.3374816E-1,8.734053E-1,-1.17117114E-1,-9.064588E-1,-2.1860465E-1,9.186321E-1,6.4534885E-1,5.272727E-1,-7.241379E-1,-6.861702E-1,-9.634318E-1,4.5679012E-1,-6.1764705E-1,7.037037E-1,9.2826223E-1,2.6984128E-1,7.243816E-1,6.4705884E-1,-6.666667E-2,-8.888889E-2,-4.1666666E-1,-5.7088125E-1,-9.3162394E-1,-9.7797014E-2,-8.3006537E-1,6.585366E-1,2.3809524E-1,-3.469388E-1,-7.52809E-1,8.695652E-1,4.5945945E-1,8.9959013E-1,9.688958E-2,5.3333336E-1,2.8571429E-2,8.113208E-1,4.520548E-1,7.0212764E-1,-0E0,1.6666667E-1,-8.571429E-2,-8E-1,-4.4508672E-1,-9.615385E-2,-6E-1,-6.708861E-1,-9.736842E-2,7.368421E-1,-2.0000001E-2,-3.7037037E-2,6.4705884E-1,1.6666667E-1,-4.871795E-1,-9.2E-1,-5.121951E-1,9.090909E-2,-0E0,5.6250002E-2,-1.4285715E-2,-0E0,9.014373E-2,6.923077E-2,-3.3333335E-2,-5.3846158E-2,3.3333335E-2,3.3333335E-2,8.316832E-2,2.6086956E-2,7.2413795E-2,-0E0,7.333334E-2,-5E-2,5E-2,-4.2857144E-2,7.1428575E-2,-0E0,-8.1818186E-2,-3.3333335E-2,-8.0000006E-2,-8.1818186E-2,-0E0,-7.3913045E-2,-1.6666668E-2,8.75E-2,-0E0,1.3043478E-2,-6.666667E-2,-2.0000001E-2,8.571429E-2,-6.0000002E-2,5.555556E-2,-5.263158E-3,-8.1818186E-2,-0E0,-9.583333E-2,-2.3076924E-2,-8.82353E-2],"categories":[],"categories_nodes":[],"categories_segments":[],"categories_sizes":[],"default_left":[0,0,0,0,0,0,0,0,0,0,0,0,0,0,0,0,0,0,0,0,0,0,0,0,0,0,0,0,0,0,0,0,0,0,0,0,0,0,0,0,0,0,0,0,0,0,0,0,0,0,0,0,0,0,0,0,0,0,0,0,0,0,0,0,0,0,0,0,0,0,0,0,0,0,0,0,0,0,0,0,0,0,0,0,0,0,0,0,0,0,0,0,0,0,0,0,0,0,0],"id":1,"left_children":[1,3,5,7,9,11,13,15,17,19,21,23,25,27,29,31,33,35,37,39,-1,-1,41,43,45,-1,47,49,51,53,55,57,59,61,-1,63,65,67,69,71,73,75,-1,77,79,-1,81,83,-1,85,-1,87,89,91,93,95,97,-1,-1,-1,-1,-1,-1,-1,-1,-1,-1,-1,-1,-1,-1,-1,-1,-1,-1,-1,-1,-1,-1,-1,-1,-1,-1,-1,-1,-1,-1,-1,-1,-1,-1,-1,-1,-1,-1,-1,-1,-1,-1],"loss_changes":[1.4243735E3,5.0963684E1,4.473065E1,9.917419E0,2.2091091E1,1.0609192E1,2.9254583E1,1.1019287E0,4.9090424E0,4.3643494E0,1.0986586E0,4.7881927E0,5.668335E-1,1.6301031E0,2.226904E0,1.2411537E0,7.03125E-2,1.9873016E0,2.983368E0,9.086361E-1,0E0,0E0,3.2261903E0,3.4051857E0,3.4179688E-3,0E0,1.0956459E0,1.5255461E0,2.3868659E0,1.8458922E0,1.3189468E0,7.90514E-1,1.2285233E0,8.109436E-1,0E0,2.2974358E0,3.203663E0,7.544708E-1,1.7097616E0,5.1489353E-1,1E0,2.2619047E0,0E0,6.5454674E-1,3.1641617E0,0E0,9.818182E-1,1.2360115E0,0E0,1.9342108E0,0E0,1.5104669E0,1.6840334E0,2.1222222E0,2.761747E0,8.816662E-1,1.9319057E0,0E0,0E0,0E0,0E0,0E0,0E0,0E0,0E0,0E0,0E0,0E0,0E0,0E0,0E0,0E0,0E0,0E0,0E0,0E0,0E0,0E0,0E0,0E0,0E0,0E0,0E0,0E0,0E0,0E0,0E0,0E0,0E0,0E0,0E0,0E0,0E0,0E0,0E0,0E0,0E0,0E0,0E0],"parents":[2147483647,0,0,1,1,2,2,3,3,4,4,5,5,6,6,7,7,8,8,9,9,10,10,11,11,12,12,13,13,14,14,15,15,16,16,17,17,18,18,19,19,22,22,23,23,24,24,26,26,27,27,28,28,29,29,30,30,31,31,32,32,33,33,35,35,36,36,37,37,38,38,39,39,40,40,41,41,43,43,44,44,46,46,47,47,49,49,51,51,52,52,53,53,54,54,55,55,56,56],"right_children":[2,4,6,8,10,12,14,16,18,20,22,24,26,28,30,32,34,36,38,40,-1,-1,42,44,46,-1,48,50,52,54,56,58,60,62,-1,64,66,68,70,72,74,76,-1,78,80,-1,82,84,-1,86,-1,88,90,92,94,96,98,-1,-1,-1,-1,-1,-1,-1,-1,-1,-1,-1,-1,-1,-1,-1,-1,-1,-1,-1,-1,-1,-1,-1,-1,-1,-1,-1,-1,-1,-1,-1,-1,-1,-1,-1,-1,-1,-1,-1,-1,-1,-1],"split_conditions":[2.7544126E-1,1.2181194E-1,9.962083E-1,9.2672996E-2,7.043771E-2,8.2860965E-1,5.4809856E-1,6.6934735E-1,9.5406306E-1,9.974253E-1,9.771285E-2,4.9896526E-1,7.987005E-1,5.606919E-1,8.2860965E-1,5.177951E-2,7.533883E-1,5.4641623E-2,1.7956744E-1,8.2538784E-1,-6.666667E-2,-8.888889E-2,4.694965E-1,3.856294E-2,7.3176056E-1,-9.7797014E-2,9.5342815E-1,9.2551496E-4,4.9262214E-4,9.977564E-1,9.5342815E-1,1.4663185E-1,5.733275E-1,2.7071232E-2,9.688958E-2,2.9229572E-2,2.4221279E-3,9.4735764E-2,9.991055E-1,1.0367563E-2,1.177527E-2,5.606166E-2,-8.571429E-2,1.4530259E-4,4.3562517E-1,-9.615385E-2,9.797234E-1,6.006407E-1,-9.736842E-2,5.2794296E-1,-2.0000001E-2,4.0416763E-4,6.503351E-1,2.0198967E-2,2.4996235E-4,1.1820197E-3,9.791222E-1,9.090909E-2,-0E0,5.6250002E-2,-1.4285715E-2,-0E0,9.014373E-2,6.923077E-2,-3.3333335E-2,-5.3846158E-2,3.3333335E-2,3.3333335E-2,8.316832E-2,2.6086956E-2,7.2413795E-2,-0E0,7.333334E-2,-5E-2,5E-2,-4.2857144E-2,7.1428575E-2,-0E0,-8.1818186E-2,-3.3333335E-2,-8.0000006E-2,-8.1818186E-2,-0E0,-7.3913045E-2,-1.6666668E-2,8.75E-2,-0E0,1.3043478E-2,-6.666667E-2,-2.0000001E-2,8.571429E-2,-6.0000002E-2,5.555556E-2,-5.263158E-3,-8.1818186E-2,-0E0,-9.583333E-2,-2.3076924E-2,-8.82353E-2],"split_indices":[1,5,7,1,1,1,1,7,7,5,7,5,7,3,1,1,4,4,1,3,0,0,3,4,3,0,1,5,5,7,1,2,7,3,0,5,5,1,7,3,4,2,0,5,4,0,5,4,0,1,0,5,3,2,5,2,1,0,0,0,0,0,0,0,0,0,0,0,0,0,0,0,0,0,0,0,0,0,0,0,0,0,0,0,0,0,0,0,0,0,0,0,0,0,0,0,0,0,0],"split_type":[0,0,0,0,0,0,0,0,0,0,0,0,0,0,0,0,0,0,0,0,0,0,0,0,0,0,0,0,0,0,0,0,0,0,0,0,0,0,0,0,0,0,0,0,0,0,0,0,0,0,0,0,0,0,0,0,0,0,0,0,0,0,0,0,0,0,0,0,0,0,0,0,0,0,0,0,0,0,0,0,0,0,0,0,0,0,0,0,0,0,0,0,0,0,0,0,0,0,0],"sum_hessian":[2.076E3,1.0725E3,1.0035E3,1.018E3,5.45E1,8.97E2,1.065E2,8.47E2,1.71E2,2.65E1,2.8E1,1.87E2,7.1E2,3.95E1,6.7E1,3.95E1,8.075E2,3.05E1,1.405E2,2.45E1,2E0,1.7E1,1.1E1,1.295E2,5.75E1,6.345E2,7.55E1,1.95E1,2E1,2.35E1,4.35E1,2.2E1,1.75E1,4.87E2,3.205E2,1.4E1,1.65E1,1.05E2,3.55E1,2.25E1,2E0,5E0,6E0,4.4E1,8.55E1,5.1E1,6.5E0,3.85E1,3.7E1,1.8E1,1.5E0,1.25E1,7.5E0,5E0,1.85E1,2.4E1,1.95E1,2.1E1,1E0,1.5E1,2.5E0,1E0,4.86E2,1.2E1,2E0,5.5E0,1.1E1,5E0,1E2,2.2E1,1.35E1,1E0,2.15E1,1E0,1E0,2.5E0,2.5E0,1E0,4.3E1,6.65E1,1.9E1,4.5E0,2E0,3.35E1,5E0,1.5E1,3E0,1.05E1,2E0,1.5E0,6E0,1.5E0,3.5E0,8.5E0,1E1,1E0,2.3E1,1.2E1,7.5E0],"tree_param":{"num_deleted":"0","num_feature":"8","num_nodes":"99","size_leaf_vector":"1"}},{"base_weights":[-2.6987921E-2,7.499129E-1,-7.430014E-1,8.2344043E-1,1.6195913E-1,-7.9383135E-2,-7.9285127E-1,8.656043E-1,6.2624586E-1,5.654198E-1,-3.6190605E-1,2.6081035E-1,-4.7414517E-1,-5.634518E-1,-8.3612156E-1,8.842685E-2,7.140887E-1,8.366685E-2,5.0414807E-1,6.6922015E-1,2.3902692E-1,-5.694309E-2,-5.419981E-1,8.007078E-2,-8.389696E-3,1.1591017E-1,-5.412286E-1,-1.8158507E-1,-6.378511E-1,-8.61336E-1,-7.64987E-1,8.69122E-2,5.3742206E-1,7.288305E-1,3.5840863E-1,8.532455E-2,4.4133225E-1,-1.6276874E-1,5.371894E-1,4.732842E-1,-2.7239868E-1,-2.3378436E-1,-7.378179E-1,-1.9223689E-1,6.5804386E-1,-5.676509E-2,6.471502E-2,-8.306508E-2,-4.2104328E-1,-4.44551E-1,5.912249E-2,-6.971497E-1,-3.391319E-1,-1.9107742E-2,-8.626609E-1,-7.981825E-1,-6.0956484E-1,4.226896E-2,7.788443E-2,2.6926382E-2,8.099357E-2,-4.3090295E-2,4.1736063E-2,-1.621147E-2,5.2110016E-2,2.2257956E-2,-7.1950525E-2,-4.0780874E-3,6.87034E-2,7.177875E-2,-1.122024E-3,-4.3381315E-2,2.5918176E-2,-7.989959E-2,1.9272696E-2,-4.1910775E-2,-8.102416E-2,1.6885902E-3,-8.039787E-2,7.6440975E-2,1.808526E-2,2.8492052E-2,-5.3043302E-2,-6.994917E-2,-1.0766091E-2,-4.0492643E-2,3.945446E-2,-7.2304085E-2,-1.1605444E-2,-4.8009153E-2,-1.0576075E-2,-8.639493E-2,-3.9016496E-2,-6.815395E-2,-8.741752E-2,2.3202065E-2,-6.440597E-2],"categories":[],"categories_nodes":[],"categories_segments":[],"categories_sizes":[],"default_left":[0,0,0,0,0,0,0,0,0,0,0,0,0,0,0,0,0,0,0,0,0,0,0,0,0,0,0,0,0,0,0,0,0,0,0,0,0,0,0,0,0,0,0,0,0,0,0,0,0,0,0,0,0,0,0,0,0,0,0,0,0,0,0,0,0,0,0,0,0,0,0,0,0,0,0,0,0,0,0,0,0,0,0,0,0,0,0,0,0,0,0,0,0,0,0,0,0],"id":2,"left_children":[1,3,5,7,9,11,13,15,17,19,21,23,25,27,29,-1,31,-1,33,35,37,39,41,-1,43,45,47,49,51,53,55,-1,57,59,61,-1,63,65,67,69,71,73,75,77,79,-1,-1,-1,81,83,85,87,89,-1,91,93,95,-1,-1,-1,-1,-1,-1,-1,-1,-1,-1,-1,-1,-1,-1,-1,-1,-1,-1,-1,-1,-1,-1,-1,-1,-1,-1,-1,-1,-1,-1,-1,-1,-1,-1,-1,-1,-1,-1,-1,-1],"loss_changes":[1.1557479E3,4.2945374E1,3.570404E1,6.8201294E0,2.38789E1,1.0417867E1,9.509949E0,1.4241333E0,3.6785507E0,1.9970512E0,2.6791186E0,6.084489E0,1.4812241E0,4.50473E0,8.547363E-1,0E0,1.8586845E0,0E0,3.128231E0,1.6259022E0,2.11418E0,2.3494723E0,1.6927853E0,0E0,3.666619E0,1.9948869E0,7.7567196E-1,1.793399E0,2.1676254E0,3.8134766E-1,6.9898987E-1,0E0,8.427019E-1,1.2638073E0,3.192873E0,0E0,1.2110329E0,1.870849E0,8.8920355E-1,7.1664274E-1,1.3528293E0,3.4013686E0,8.593273E-2,3.009712E0,1.9032812E-1,0E0,0E0,0E0,2.0731697E0,1.0806663E0,2.565867E0,1.6055374E0,7.5274706E-1,0E0,3.6468506E-2,1.0539246E0,1.4462967E0,0E0,0E0,0E0,0E0,0E0,0E0,0E0,0E0,0E0,0E0,0E0,0E0,0E0,0E0,0E0,0E0,0E0,0E0,0E0,0E0,0E0,0E0,0E0,0E0,0E0,0E0,0E0,0E0,0E0,0E0,0E0,0E0,0E0,0E0,0E0,0E0,0E0,0E0,0E0,0E0],"parents":[2147483647,0,0,1,1,2,2,3,3,4,4,5,5,6,6,7,7,8,8,9,9,10,10,11,11,12,12,13,13,14,14,16,16,18,18,19,19,20,20,21,21,22,22,24,24,25,25,26,26,27,27,28,28,29,29,30,30,32,32,33,33,34,34,36,36,37,37,38,38,39,39,40,40,41,41,42,42,43,43,44,44,48,48,49,49,50,50,51,51,52,52,54,54,55,55,56,56],"right_children":[2,4,6,8,10,12,14,16,18,20,22,24,26,28,30,-1,32,-1,34,36,38,40,42,-1,44,46,48,50,52,54,56,-1,58,60,62,-1,64,66,68,70,72,74,76,78,80,-1,-1,-1,82,84,86,88,90,-1,92,94,96,-1,-1,-1,-1,-1,-1,-1,-1,-1,-1,-1,-1,-1,-1,-1,-1,-1,-1,-1,-1,-1,-1,-1,-1,-1,-1,-1,-1,-1,-1,-1,-1,-1,-1,-1,-1,-1,-1,-1,-1],"split_conditions":[7.237543E-1,9.962083E-1,3.78828E-1,2.0418297E-1,3.593209E-1,9.3000513E-1,9.0656734E-1,7.987005E-1,5.0659764E-1,3.332174E-2,9.985856E-1,3.1867158E-1,2.6933893E-3,9.717614E-1,5.489162E-2,8.842685E-2,5.894482E-2,8.366685E-2,3.856294E-2,9.9885607E-1,6.63886E-2,4.9017695E-1,3.5632837E-1,8.007078E-2,2.4928825E-1,3.0623006E-2,1.0013652E-2,3.0623006E-2,2.0600489E-1,4.5797285E-1,9.4122064E-1,8.69122E-2,8.6851454E-1,2.3982143E-1,2.5976968E-3,8.532455E-2,5.8880877E-2,1.7085965E-1,1.2290559E-1,1.3988482E-2,2.9863058E-2,3.3254754E-2,9.9911755E-1,1.0921266E-1,1.7688632E-1,-5.676509E-2,6.471502E-2,-8.306508E-2,1.615974E-2,8.7342846E-1,5.3245384E-2,9.044096E-1,5.0659764E-1,-1.9107742E-2,9.9300474E-1,9.960836E-1,6.945434E-1,4.226896E-2,7.788443E-2,2.6926382E-2,8.099357E-2,-4.3090295E-2,4.1736063E-2,-1.621147E-2,5.2110016E-2,2.2257956E-2,-7.1950525E-2,-4.0780874E-3,6.87034E-2,7.177875E-2,-1.122024E-3,-4.3381315E-2,2.5918176E-2,-7.989959E-2,1.9272696E-2,-4.1910775E-2,-8.102416E-2,1.6885902E-3,-8.039787E-2,7.6440975E-2,1.808526E-2,2.8492052E-2,-5.3043302E-2,-6.994917E-2,-1.0766091E-2,-4.0492643E-2,3.945446E-2,-7.2304085E-2,-1.1605444E-2,-4.8009153E-2,-1.0576075E-2,-8.639493E-2,-3.9016496E-2,-6.815395E-2,-8.741752E-2,2.3202065E-2,-6.440597E-2],"split_indices":[0,7,7,0,0,0,0,7,3,2,7,3,7,7,1,0,0,0,4,7,2,0,4,0,7,2,2,2,1,7,0,0,3,0,2,0,3,0,3,2,2,4,7,7,2,0,0,0,2,0,4,0,3,0,3,7,7,0,0,0,0,0,0,0,0,0,0,0,0,0,0,0,0,0,0,0,0,0,0,0,0,0,0,0,0,0,0,0,0,0,0,0,0,0,0,0,0],"split_type":[0,0,0,0,0,0,0,0,0,0,0,0,0,0,0,0,0,0,0,0,0,0,0,0,0,0,0,0,0,0,0,0,0,0,0,0,0,0,0,0,0,0,0,0,0,0,0,0,0,0,0,0,0,0,0,0,0,0,0,0,0,0,0,0,0,0,0,0,0,0,0,0,0,0,0,0,0,0,0,0,0,0,0,0,0,0,0,0,0,0,0,0,0,0,0,0,0],"sum_hessian":[2.0756672E3,9.9548364E2,1.0801836E3,8.844738E2,1.11009766E2,7.56534E1,1.00453015E3,7.2587805E2,1.5859583E2,6.266686E1,4.834291E1,4.0817493E1,3.4835907E1,1.6163509E2,8.428951E2,6.419625E2,8.391549E1,5.6085667E1,1.02510155E2,4.6749195E1,1.5917662E1,1.8437515E1,2.9905396E1,1.29237385E1,2.7893753E1,3.4818916E0,3.1354017E1,2.6917456E1,1.3471764E2,6.1410876E2,2.2878632E2,4.260661E1,4.130888E1,3.875765E1,6.375251E1,2.4345465E1,2.240373E1,6.973908E0,8.943754E0,4.981524E0,1.3455991E1,1.2470745E1,1.743465E1,2.2420277E1,5.4734764E0,1.4926798E0,1.9892118E0,7.4652624E0,2.3888754E1,1.2459246E1,1.445821E1,1.1129144E2,2.342619E1,1.498006E0,6.126108E2,1.851137E2,4.367262E1,2.986622E1,1.144266E1,6.4619865E0,3.2295662E1,3.9921393E0,5.976037E1,2.495191E0,1.9908539E1,4.4760156E0,2.4978924E0,1.9912152E0,6.9525385E0,2.9907603E0,1.9907637E0,1.046286E1,2.9931302E0,4.9877133E0,7.4830313E0,4.4849424E0,1.2949709E1,1.7433176E1,4.9871016E0,3.9836316E0,1.4898448E0,2.9896884E0,2.0899065E1,6.479546E0,5.9797E0,5.979078E0,8.479133E0,1.0631043E2,4.9810114E0,1.3945623E1,9.480567E0,6.101187E2,2.492063E0,7.695785E1,1.08155846E2,1.4941022E0,4.2178516E1],"tree_param":{"num_deleted":"0","num_feature":"8","num_nodes":"97","size_leaf_vector":"1"}},{"base_weights":[2.2615138E-2,-7.5514656E-1,7.4658537E-1,-8.3203024E-1,-2.0651199E-1,9.749308E-2,7.9568696E-1,-9.027891E-2,-6.948894E-1,2.3728089E-1,-5.402126E-1,-2.2311817E-1,6.57345E-1,5.715964E-1,8.3829415E-1,-7.6723593E-1,-4.6402645E-1,3.8007492E-1,-7.070264E-1,-6.087471E-2,-6.078558E-1,-5.9794986E-1,2.414136E-1,7.113606E-1,-1.885556E-2,6.1266655E-1,-5.182215E-1,8.744651E-2,7.7672493E-1,-8.800312E-2,-6.696484E-1,-5.1356715E-1,1.9395722E-1,4.6465808E-1,-5.3916425E-1,-1.8118465E-2,-8.0811515E-2,-5.714908E-2,9.659767E-2,-2.7712694E-1,-6.9261765E-1,-7.3358685E-1,1.7101665E-1,3.7771514E-1,-5.0026264E-2,7.3523164E-1,1.8402541E-2,7.911612E-1,5.235935E-1,5.678783E-4,-7.520607E-2,-6.1435094E-3,7.821362E-1,-8.426985E-2,-5.451497E-2,-7.0645064E-2,-4.2310487E-2,5.6872427E-2,-5.60151E-2,7.416829E-2,2.4872515E-2,-6.45699E-2,-1.9555379E-2,6.218313E-2,-1.0527722E-2,-4.489317E-2,2.8547943E-2,-8.2277045E-2,-5.0685257E-2,-7.576009E-2,-2.2457149E-2,5.6465536E-2,-1.5915042E-2,2.0625819E-2,7.91985E-2,5.0421532E-2,8.633172E-2,8.068278E-2,1.6512351E-2,2.185001E-2,6.218638E-2,1.0352473E-2,7.871598E-2],"categories":[],"categories_nodes":[],"categories_segments":[],"categories_sizes":[],"default_left":[0,0,0,0,0,0,0,0,0,0,0,0,0,0,0,0,0,0,0,0,0,0,0,0,0,0,0,0,0,0,0,0,0,0,0,0,0,0,0,0,0,0,0,0,0,0,0,0,0,0,0,0,0,0,0,0,0,0,0,0,0,0,0,0,0,0,0,0,0,0,0,0,0,0,0,0,0,0,0,0,0,0,0],"id":3,"left_children":[1,3,5,7,9,11,13,-1,15,17,19,21,23,25,27,29,31,33,35,37,39,41,43,45,-1,47,49,-1,51,-1,53,55,57,59,61,-1,-1,-1,63,65,67,69,71,73,-1,75,-1,77,79,-1,-1,-1,81,-1,-1,-1,-1,-1,-1,-1,-1,-1,-1,-1,-1,-1,-1,-1,-1,-1,-1,-1,-1,-1,-1,-1,-1,-1,-1,-1,-1,-1,-1],"loss_changes":[1.1749407E3,4.2260803E1,3.4365173E1,7.9314575E0,1.8636269E1,1.3992903E1,9.112061E0,0E0,4.730255E0,7.595235E0,2.285881E0,8.815053E0,1.4291811E0,7.6412544E0,1.1958008E0,1.946106E0,2.5506287E0,3.9707875E0,2.51544E-1,8.5694295E-1,1.5649033E0,3.0298948E0,2.5090117E0,2.0270443E-1,0E0,2.1000748E0,7.9863286E-1,0E0,1.5017548E0,0E0,2.2913322E0,9.2601204E-1,2.0116527E0,2.4686737E0,3.826189E-2,0E0,0E0,0E0,9.6419823E-1,1.5250642E0,7.729645E-1,1.2152481E-1,7.379217E-1,1.2541773E0,0E0,3.149433E-1,0E0,3.639202E-1,3.1157417E0,0E0,0E0,0E0,1.0044098E0,0E0,0E0,0E0,0E0,0E0,0E0,0E0,0E0,0E0,0E0,0E0,0E0,0E0,0E0,0E0,0E0,0E0,0E0,0E0,0E0,0E0,0E0,0E0,0E0,0E0,0E0,0E0,0E0,0E0,0E0],"parents":[2147483647,0,0,1,1,2,2,3,3,4,4,5,5,6,6,8,8,9,9,10,10,11,11,12,12,13,13,14,14,15,15,16,16,17,17,18,18,19,19,20,20,21,21,22,22,23,23,25,25,26,26,28,28,30,30,31,31,32,32,33,33,34,34,38,38,39,39,40,40,41,41,42,42,43,43,45,45,47,47,48,48,52,52],"right_children":[2,4,6,8,10,12,14,-1,16,18,20,22,24,26,28,30,32,34,36,38,40,42,44,46,-1,48,50,-1,52,-1,54,56,58,60,62,-1,-1,-1,64,66,68,70,72,74,-1,76,-1,78,80,-1,-1,-1,82,-1,-1,-1,-1,-1,-1,-1,-1,-1,-1,-1,-1,-1,-1,-1,-1,-1,-1,-1,-1,-1,-1,-1,-1,-1,-1,-1,-1,-1,-1],"split_conditions":[7.237543E-1,9.9469286E-1,3.78828E-1,6.48198E-2,6.2054616E-1,9.433858E-1,9.0656734E-1,-9.027891E-2,7.8096E-1,4.9963513E-1,3.5836725E-4,4.5788217E-1,9.9601424E-1,6.437384E-2,4.6247464E-2,3.856294E-2,6.6348916E-1,1.2796348E-3,2.3111902E-2,1.5644834E-4,2.4996235E-4,9.331983E-1,2.4928825E-1,9.7356814E-1,-1.885556E-2,2.5707842E-3,1.7150335E-1,8.744651E-2,1.3096802E-4,-8.800312E-2,1.2818678E-1,7.318847E-2,2.0347734E-3,1.3434184E-3,1.9841562E-3,-1.8118465E-2,-8.0811515E-2,-5.714908E-2,2.7462047E-2,1.9869389E-4,7.1493053E-4,9.3000513E-1,1.069656E-2,9.771285E-2,-5.0026264E-2,9.585758E-1,1.8402541E-2,9.044096E-1,8.1961596E-1,5.678783E-4,-7.520607E-2,-6.1435094E-3,3.0702704E-3,-8.426985E-2,-5.451497E-2,-7.0645064E-2,-4.2310487E-2,5.6872427E-2,-5.60151E-2,7.416829E-2,2.4872515E-2,-6.45699E-2,-1.9555379E-2,6.218313E-2,-1.0527722E-2,-4.489317E-2,2.8547943E-2,-8.2277045E-2,-5.0685257E-2,-7.576009E-2,-2.2457149E-2,5.6465536E-2,-1.5915042E-2,2.0625819E-2,7.91985E-2,5.0421532E-2,8.633172E-2,8.068278E-2,1.6512351E-2,2.185001E-2,6.218638E-2,1.0352473E-2,7.871598E-2],"split_indices":[0,7,7,0,1,0,0,0,7,6,6,6,5,5,1,4,0,5,4,5,5,0,7,4,0,6,6,0,6,0,6,6,5,6,5,0,0,0,0,5,5,0,4,7,0,0,0,0,0,0,0,0,4,0,0,0,0,0,0,0,0,0,0,0,0,0,0,0,0,0,0,0,0,0,0,0,0,0,0,0,0,0,0],"split_type":[0,0,0,0,0,0,0,0,0,0,0,0,0,0,0,0,0,0,0,0,0,0,0,0,0,0,0,0,0,0,0,0,0,0,0,0,0,0,0,0,0,0,0,0,0,0,0,0,0,0,0,0,0,0,0,0,0,0,0,0,0,0,0,0,0,0,0,0,0,0,0,0,0,0,0,0,0,0,0,0,0,0,0],"sum_hessian":[2.084644E3,1.00496564E3,1.0796783E3,8.8099036E2,1.239753E2,7.614004E1,1.0035383E3,5.774617E2,3.035287E2,5.3334274E1,7.064102E1,4.8796906E1,2.734313E1,1.6262663E2,8.409117E2,2.29337E2,7.419167E1,4.6847683E1,6.4865923E0,8.970887E0,6.167014E1,2.6846886E1,2.1950022E1,2.5851418E1,1.4917122E0,1.571425E2,5.484142E0,5.213966E2,3.1951505E2,1.0266048E2,1.2667653E2,6.9200905E1,4.9907713E0,4.3353096E1,3.494587E0,1.4961697E0,4.9904227E0,1.4947851E0,7.476102E0,1.3451956E1,4.821818E1,2.2860552E1,3.986333E0,1.8956938E1,2.993084E0,2.4354706E1,1.4967128E0,4.9688644E1,1.0745385E2,1.9935188E0,3.490623E0,1.9831947E0,3.1753186E2,5.0589554E1,7.6086975E1,1.9919422E1,4.9281483E1,3.4981418E0,1.4926296E0,1.7923668E1,2.5429428E1,1.9964403E0,1.4981467E0,1.4980993E0,5.9780025E0,1.045985E1,2.992105E0,2.6336746E1,2.1881437E1,2.1364275E1,1.4962775E0,1.4944168E0,2.4919162E0,1.4467181E1,4.4897566E0,1.0447692E1,1.3907014E1,4.8193813E1,1.494832E0,2.6963985E1,8.048987E1,2.4921238E0,3.1503973E2],"tree_param":{"num_deleted":"0","num_feature":"8","num_nodes":"83","size_leaf_vector":"1"}},{"base_weights":[-2.6062917E-2,6.961218E-1,-6.90918E-1,7.757272E-1,2.9913765E-1,-4.1719243E-1,-7.5081956E-1,6.6946614E-1,8.1328714E-1,1.6324733E-1,5.6008536E-1,-1.899596E-1,-5.149007E-1,-8.0142274E-2,-6.758379E-1,7.146914E-1,5.4276925E-1,8.188529E-1,4.8156527E-1,-2.9729158E-1,2.4931002E-1,7.231759E-1,4.1990083E-1,-5.4493153E-1,-5.5376895E-2,-5.8570164E-1,-9.855149E-2,1.999162E-2,-6.825088E-1,8.127302E-2,6.35557E-1,1.6979457E-1,6.237739E-1,8.3002545E-2,7.1782213E-1,-3.6641527E-2,6.821797E-1,-5.064033E-1,3.5121238E-1,3.494617E-1,-4.109582E-2,3.8904065E-1,7.778016E-1,5.156072E-1,8.251204E-2,-1.0958462E-1,-7.2418875E-1,1.414686E-1,-3.0281276E-1,-6.655553E-1,-5.145918E-1,3.7494162E-1,-2.3198731E-1,-6.8665826E-1,1.8388778E-2,4.1400917E-2,6.845114E-2,-1.8067857E-2,5.7744022E-2,3.7442258E-4,6.838667E-2,9.055268E-3,7.306055E-2,7.6763675E-2,9.84918E-3,-2.087903E-2,-7.717737E-2,6.27207E-2,-1.774942E-2,5.838094E-2,1.9770203E-2,6.770616E-2,-1.884586E-2,6.827593E-2,-2.3375032E-2,8.222181E-2,3.252625E-2,3.6845036E-2,7.882046E-2,-4.2906687E-2,3.0669376E-2,-4.6268802E-2,5.7198174E-2,-7.837831E-2,-2.9258398E-2,-3.4726989E-3,7.8842185E-2,-4.5910772E-2,3.3728678E-2,-4.1311886E-2,-7.439388E-2,6.2411483E-2,-5.510459E-2,-1.5128113E-2,6.450517E-2,-4.6369746E-2,2.4596613E-3,-6.9205865E-2,-2.1865612E-2],"categories":[],"categories_nodes":[],"categories_segments":[],"categories_sizes":[],"default_left":[0,0,0,0,0,0,0,0,0,0,0,0,0,0,0,0,0,0,0,0,0,0,0,0,0,0,0,0,0,0,0,0,0,0,0,0,0,0,0,0,0,0,0,0,0,0,0,0,0,0,0,0,0,0,0,0,0,0,0,0,0,0,0,0,0,0,0,0,0,0,0,0,0,0,0,0,0,0,0,0,0,0,0,0,0,0,0,0,0,0,0,0,0,0,0,0,0,0,0],"id":4,"left_children":[1,3,5,7,9,11,13,15,17,19,21,23,25,-1,27,29,31,33,35,37,39,41,43,45,47,49,51,-1,53,-1,55,57,59,-1,61,-1,63,65,67,69,71,73,75,77,79,81,83,85,87,89,91,93,95,97,-1,-1,-1,-1,-1,-1,-1,-1,-1,-1,-1,-1,-1,-1,-1,-1,-1,-1,-1,-1,-1,-1,-1,-1,-1,-1,-1,-1,-1,-1,-1,-1,-1,-1,-1,-1,-1,-1,-1,-1,-1,-1,-1,-1,-1],"loss_changes":[9.752728E2,3.0536896E1,1.7027039E1,2.6899414E0,5.7331095E0,4.167965E0,2.7458496E0,8.571472E-1,7.024536E-1,4.4110184E0,9.728832E-1,2.8055017E0,3.8856277E0,0E0,2.2133179E0,7.013092E-1,1.7466431E0,6.2164307E-2,2.330683E0,2.576033E0,2.7115526E0,1.4320755E-1,1.0040054E0,1.1852393E0,2.1933606E0,3.0557632E-1,1.3913178E0,0E0,1.3954468E0,0E0,7.084389E-1,1.8637588E0,1.8604851E0,0E0,4.5853806E-1,0E0,4.351945E-1,9.273274E-1,8.2669216E-1,2.3406897E0,2.7389774E0,1.153364E0,1.3440132E-1,7.147751E-1,1.0895355E0,1.6856722E0,6.1329365E-2,2.9081059E0,2.1438196E0,6.8893814E-1,3.0328865E0,7.970455E-1,1.0056667E0,7.3721313E-1,0E0,0E0,0E0,0E0,0E0,0E0,0E0,0E0,0E0,0E0,0E0,0E0,0E0,0E0,0E0,0E0,0E0,0E0,0E0,0E0,0E0,0E0,0E0,0E0,0E0,0E0,0E0,0E0,0E0,0E0,0E0,0E0,0E0,0E0,0E0,0E0,0E0,0E0,0E0,0E0,0E0,0E0,0E0,0E0,0E0],"parents":[2147483647,0,0,1,1,2,2,3,3,4,4,5,5,6,6,7,7,8,8,9,9,10,10,11,11,12,12,14,14,15,15,16,16,17,17,18,18,19,19,20,20,21,21,22,22,23,23,24,24,25,25,26,26,28,28,30,30,31,31,32,32,34,34,36,36,37,37,38,38,39,39,40,40,41,41,42,42,43,43,44,44,45,45,46,46,47,47,48,48,49,49,50,50,51,51,52,52,53,53],"right_children":[2,4,6,8,10,12,14,16,18,20,22,24,26,-1,28,30,32,34,36,38,40,42,44,46,48,50,52,-1,54,-1,56,58,60,-1,62,-1,64,66,68,70,72,74,76,78,80,82,84,86,88,90,92,94,96,98,-1,-1,-1,-1,-1,-1,-1,-1,-1,-1,-1,-1,-1,-1,-1,-1,-1,-1,-1,-1,-1,-1,-1,-1,-1,-1,-1,-1,-1,-1,-1,-1,-1,-1,-1,-1,-1,-1,-1,-1,-1,-1,-1,-1,-1],"split_conditions":[7.237543E-1,3.0123544E-1,9.0656734E-1,9.344351E-1,5.748441E-2,8.1961596E-1,4.533502E-2,1.9097319E-1,8.815755E-1,7.999838E-4,6.022225E-2,1.3953401E-3,1.03627525E-1,-8.0142274E-2,1.3096802E-4,6.41466E-1,2.6196307E-1,2.9000795E-1,2.5672818E-4,1.0733828E-2,2.2674892E-2,1.1171862E-1,3.4109166E-1,3.775453E-2,3.6812812E-1,1.401265E-1,1.4663185E-1,1.999162E-2,8.842139E-1,8.127302E-2,7.5296605E-1,7.735513E-1,5.3588435E-4,8.3002545E-2,2.0687866E-4,-3.6641527E-2,1.4605796E-2,5.533166E-2,4.9973506E-4,4.9017695E-1,8.879266E-3,8.170512E-2,7.3176056E-1,5.575056E-1,1.3031451E-1,4.7694063E-3,6.1325556E-1,8.08933E-1,2.701737E-1,2.7071232E-2,1.6732931E-1,1.1589225E-1,8.691479E-1,8.79591E-1,1.8388778E-2,4.1400917E-2,6.845114E-2,-1.8067857E-2,5.7744022E-2,3.7442258E-4,6.838667E-2,9.055268E-3,7.306055E-2,7.6763675E-2,9.84918E-3,-2.087903E-2,-7.717737E-2,6.27207E-2,-1.774942E-2,5.838094E-2,1.9770203E-2,6.770616E-2,-1.884586E-2,6.827593E-2,-2.3375032E-2,8.222181E-2,3.252625E-2,3.6845036E-2,7.882046E-2,-4.2906687E-2,3.0669376E-2,-4.6268802E-2,5.7198174E-2,-7.837831E-2,-2.9258398E-2,-3.4726989E-3,7.8842185E-2,-4.5910772E-2,3.3728678E-2,-4.1311886E-2,-7.439388E-2,6.2411483E-2,-5.510459E-2,-1.5128113E-2,6.450517E-2,-4.6369746E-2,2.4596613E-3,-6.9205865E-2,-2.1865612E-2],"split_indices":[0,0,0,1,2,0,1,4,4,6,4,6,2,0,6,3,4,4,6,2,2,2,2,3,6,6,2,0,2,0,3,3,6,0,6,0,2,3,6,0,4,2,3,3,4,2,3,0,4,3,6,2,0,6,0,0,0,0,0,0,0,0,0,0,0,0,0,0,0,0,0,0,0,0,0,0,0,0,0,0,0,0,0,0,0,0,0,0,0,0,0,0,0,0,0,0,0,0,0],"split_type":[0,0,0,0,0,0,0,0,0,0,0,0,0,0,0,0,0,0,0,0,0,0,0,0,0,0,0,0,0,0,0,0,0,0,0,0,0,0,0,0,0,0,0,0,0,0,0,0,0,0,0,0,0,0,0,0,0,0,0,0,0,0,0,0,0,0,0,0,0,0,0,0,0,0,0,0,0,0,0,0,0,0,0,0,0,0,0,0,0,0,0,0,0,0,0,0,0,0,0],"sum_hessian":[2.0291895E3,9.726366E2,1.0565529E3,8.0938116E2,1.6325543E2,1.9113017E2,8.6542267E2,2.1629214E2,5.93089E2,1.08420364E2,5.483507E1,5.835724E1,1.3277293E2,5.1092484E2,3.5449786E2,1.5597496E2,6.031719E1,5.818579E2,1.1231116E1,1.66844E1,9.173596E1,2.34244E1,3.141067E1,1.5204691E1,4.315255E1,1.1312847E2,1.9644457E1,2.4609518E0,3.520369E2,6.552567E1,9.044928E1,1.1314986E1,4.90022E1,5.1742285E2,6.443502E1,1.9905903E0,9.240526E0,1.2781949E1,3.9024515E0,6.806066E1,2.3675303E1,4.432647E0,1.8991753E1,2.4057968E1,7.3527017E0,4.904608E0,1.0300083E1,2.427168E1,1.8880869E1,4.9350323E1,6.377815E1,3.9210005E0,1.5723457E1,3.505654E2,1.4714925E0,1.8080639E1,7.2368645E1,6.383527E0,4.9314594E0,4.423489E0,4.4578712E1,1.4483684E0,6.2986652E1,7.7855096E0,1.4550166E0,6.867185E0,5.9147644E0,2.4415913E0,1.4608601E0,2.5632286E1,4.2428375E1,3.4189374E0,2.0256365E1,2.9466624E0,1.4859849E0,1.6550434E1,2.4413185E0,1.7150957E1,6.9070106E0,1.9618556E0,5.3908463E0,3.4423487E0,1.4622592E0,8.333455E0,1.9666278E0,1.9820072E1,4.4516096E0,1.54027E1,3.4781673E0,1.3178629E1,3.6171696E1,1.4783618E0,6.2299786E1,1.4791939E0,2.4418066E0,7.838049E0,7.8854084E0,3.4609302E2,4.4723945E0],"tree_param":{"num_deleted":"0","num_feature":"8","num_nodes":"99","size_leaf_vector":"1"}},{"base_weights":[2.237769E-2,-6.986238E-1,6.948916E-1,-7.697344E-1,-2.0264636E-1,7.272557E-1,-1.5600078E-1,-8.0835956E-1,-6.0987896E-1,-5.6341016E-1,2.0071815E-1,5.2115107E-1,7.68375E-1,-4.4682035E-1,7.0495015E-1,-8.30314E-2,-7.3782027E-1,-7.8568496E-2,-4.9539158E-1,-6.628708E-1,-1.751805E-1,3.5420612E-1,-3.789178E-1,5.5420023E-1,-5.8358693E-1,4.8267582E-1,7.740969E-1,-7.984368E-2,-1.9410145E-1,1.6941937E-2,7.763105E-2,-7.479273E-1,9.203997E-3,-5.396385E-1,-1.0212926E-2,-3.576139E-1,-7.540661E-1,-4.6294916E-1,2.668068E-1,8.6870216E-2,5.271057E-1,-6.137996E-1,6.1045315E-2,1.23206E-1,5.8946896E-1,-1.6677076E-2,-6.975021E-2,2.049643E-1,7.0207274E-1,2.7729243E-1,7.7611774E-1,-5.525056E-1,8.607792E-2,-8.0735795E-2,-6.1022956E-2,-5.0130118E-2,-7.885087E-2,5.863724E-2,-3.4988537E-2,-5.9671797E-2,6.030357E-3,3.9628027E-3,-7.97563E-2,7.582458E-3,-7.2635494E-2,5.8601856E-2,-3.0112345E-2,-7.060928E-2,2.9716289E-2,7.08629E-2,2.8345054E-2,-7.416558E-2,-2.4355429E-3,-2.8963372E-2,6.429606E-2,5.9961777E-2,-2.739405E-2,-4.032257E-2,4.0831763E-2,7.807901E-2,1.3609451E-2,6.050837E-2,-2.9010383E-2,7.1484186E-2,7.968684E-2,-7.506815E-3,-7.3847584E-2,3.3618454E-2,-3.7824776E-2],"categories":[],"categories_nodes":[],"categories_segments":[],"categories_sizes":[],"default_left":[0,0,0,0,0,0,0,0,0,0,0,0,0,0,0,0,0,0,0,0,0,0,0,0,0,0,0,0,0,0,0,0,0,0,0,0,0,0,0,0,0,0,0,0,0,0,0,0,0,0,0,0,0,0,0,0,0,0,0,0,0,0,0,0,0,0,0,0,0,0,0,0,0,0,0,0,0,0,0,0,0,0,0,0,0,0,0,0,0],"id":5,"left_children":[1,3,5,7,9,11,13,15,17,19,21,23,25,27,29,-1,31,-1,33,35,37,39,41,43,45,47,49,-1,51,-1,-1,53,-1,55,57,59,61,63,65,67,69,71,-1,73,75,-1,-1,77,79,81,83,85,87,-1,-1,-1,-1,-1,-1,-1,-1,-1,-1,-1,-1,-1,-1,-1,-1,-1,-1,-1,-1,-1,-1,-1,-1,-1,-1,-1,-1,-1,-1,-1,-1,-1,-1,-1,-1],"loss_changes":[9.850548E2,3.442328E1,2.9058838E1,4.799347E0,1.820116E1,8.182495E0,1.0164306E1,4.5169067E-1,3.0500832E0,2.4276524E0,5.420864E0,6.58696E0,1.0031738E0,2.5123148E0,2.628832E-1,0E0,1.5123596E0,0E0,2.2741623E0,1.1802254E0,2.005224E0,2.149702E0,3.3780255E0,2.4671326E0,1.4341068E-1,1.0254822E0,6.1203E-1,0E0,1.9339638E0,0E0,0E0,8.997116E-1,0E0,5.3303146E-1,2.2101686E0,1.4232196E0,1.3849335E0,1.3785961E0,1.3491132E0,3.5202434E0,1.066145E0,8.066473E-1,0E0,3.1693804E0,1.5152893E0,0E0,0E0,1.386931E0,3.5305738E-1,1.085772E0,4.7317505E-1,6.8835187E-1,1.4520538E0,0E0,0E0,0E0,0E0,0E0,0E0,0E0,0E0,0E0,0E0,0E0,0E0,0E0,0E0,0E0,0E0,0E0,0E0,0E0,0E0,0E0,0E0,0E0,0E0,0E0,0E0,0E0,0E0,0E0,0E0,0E0,0E0,0E0,0E0,0E0,0E0],"parents":[2147483647,0,0,1,1,2,2,3,3,4,4,5,5,6,6,7,7,8,8,9,9,10,10,11,11,12,12,13,13,14,14,16,16,18,18,19,19,20,20,21,21,22,22,23,23,24,24,25,25,26,26,28,28,31,31,33,33,34,34,35,35,36,36,37,37,38,38,39,39,40,40,41,41,43,43,44,44,47,47,48,48,49,49,50,50,51,51,52,52],"right_children":[2,4,6,8,10,12,14,16,18,20,22,24,26,28,30,-1,32,-1,34,36,38,40,42,44,46,48,50,-1,52,-1,-1,54,-1,56,58,60,62,64,66,68,70,72,-1,74,76,-1,-1,78,80,82,84,86,88,-1,-1,-1,-1,-1,-1,-1,-1,-1,-1,-1,-1,-1,-1,-1,-1,-1,-1,-1,-1,-1,-1,-1,-1,-1,-1,-1,-1,-1,-1,-1,-1,-1,-1,-1,-1],"split_conditions":[7.237543E-1,9.9469286E-1,2.571911E-1,1.7085965E-1,3.593209E-1,9.0656734E-1,9.5391333E-1,4.8532143E-2,1.2818678E-1,5.0221495E-2,4.9840742E-1,7.793008E-2,1.6665196E-1,1.9054747E-1,1.6898664E-2,-8.30314E-2,9.9949634E-1,-7.8568496E-2,9.7530055E-1,2.2384182E-4,1.459007E-1,9.985856E-1,7.11305E-1,3.78828E-1,5.1611394E-1,9.176167E-1,1.3096802E-4,-7.984368E-2,8.9955187E-1,1.6941937E-2,7.763105E-2,4.3664032E-1,9.203997E-3,9.5372546E-1,7.239777E-1,1.5644834E-4,3.1845542E-4,4.1875668E-2,9.977564E-1,4.7073132E-1,7.999838E-4,9.995049E-1,6.1045315E-2,8.517178E-1,9.836396E-1,-1.6677076E-2,-6.975021E-2,4.6281505E-1,5.6300797E-3,2.2998934E-3,9.433858E-1,4.694965E-1,8.610885E-2,-8.0735795E-2,-6.1022956E-2,-5.0130118E-2,-7.885087E-2,5.863724E-2,-3.4988537E-2,-5.9671797E-2,6.030357E-3,3.9628027E-3,-7.97563E-2,7.582458E-3,-7.2635494E-2,5.8601856E-2,-3.0112345E-2,-7.060928E-2,2.9716289E-2,7.08629E-2,2.8345054E-2,-7.416558E-2,-2.4355429E-3,-2.8963372E-2,6.429606E-2,5.9961777E-2,-2.739405E-2,-4.032257E-2,4.0831763E-2,7.807901E-2,1.3609451E-2,6.050837E-2,-2.9010383E-2,7.1484186E-2,7.968684E-2,-7.506815E-3,-7.3847584E-2,3.3618454E-2,-3.7824776E-2],"split_indices":[0,7,5,0,0,0,0,0,6,2,6,5,7,3,3,0,6,0,7,5,0,7,0,7,3,6,6,0,0,0,0,7,0,3,3,5,6,0,7,0,6,7,0,0,3,0,0,3,5,2,0,3,6,0,0,0,0,0,0,0,0,0,0,0,0,0,0,0,0,0,0,0,0,0,0,0,0,0,0,0,0,0,0,0,0,0,0,0,0],"split_type":[0,0,0,0,0,0,0,0,0,0,0,0,0,0,0,0,0,0,0,0,0,0,0,0,0,0,0,0,0,0,0,0,0,0,0,0,0,0,0,0,0,0,0,0,0,0,0,0,0,0,0,0,0,0,0,0,0,0,0,0,0,0,0,0,0,0,0,0,0,0,0,0,0,0,0,0,0,0,0,0,0,0,0,0,0,0,0,0,0],"sum_hessian":[2.0295275E3,9.7943616E2,1.0500913E3,8.56136E2,1.2330015E2,1.011754E3,3.833727E1,6.8626086E2,1.6987514E2,6.487766E1,5.842249E1,1.7055334E2,8.412007E2,2.901675E1,9.320518E0,5.151548E2,1.7110605E2,6.4684105E1,1.05191025E2,5.108322E1,1.3794438E1,4.6498558E1,1.192393E1,1.6608316E2,4.4701786E0,1.8192516E1,8.230082E2,1.1231121E1,1.778563E1,1.4926814E0,7.827836E0,1.6914473E2,1.961312E0,9.629678E1,8.894247E0,1.2882663E1,3.820056E1,8.326077E0,5.468361E0,1.8852072E1,2.7646486E1,9.943014E0,1.9809163E0,1.2902609E1,1.5318056E2,1.4883373E0,2.9818413E0,8.882857E0,9.309659E0,3.8940628E0,8.1911414E2,7.377015E0,1.0408614E1,1.1475355E2,5.439118E1,8.6054726E1,1.0242053E1,2.9633193E0,5.9309273E0,7.9222507E0,4.9604115E0,1.9893571E0,3.6211205E1,2.9678118E0,5.358266E0,3.4803438E0,1.988017E0,3.4573965E0,1.5394676E1,1.4749656E1,1.28968315E1,7.9585066E0,1.9845078E0,7.437651E0,5.4649577E0,1.517029E2,1.4776516E0,1.9795448E0,6.9033127E0,7.8397517E0,1.4699076E0,2.4260716E0,1.467991E0,2.1618362E2,6.029305E2,2.4614477E0,4.9155674E0,6.9441543E0,3.46446E0],"tree_param":{"num_deleted":"0","num_feature":"8","num_nodes":"89","size_leaf_vector":"1"}},{"base_weights":[-3.1331662E-2,6.4478606E-1,-6.47159E-1,7.1716845E-1,1.16914816E-1,-6.866908E-1,2.32511E-2,7.543776E-1,5.461553E-1,-2.3576322E-1,3.9792374E-1,-5.200321E-1,-7.1993554E-1,5.397331E-1,-4.0521765E-1,7.681505E-1,6.282839E-1,4.295894E-1,7.43884E-1,9.9510424E-2,-4.8668912E-1,5.478322E-1,7.912318E-2,1.0533332E-1,-5.421357E-1,-5.0391924E-1,-7.30519E-1,6.661262E-2,1.8056928E-1,-4.6706247E-1,5.3074E-2,5.007588E-1,7.726007E-2,-1.9071798E-4,6.5003794E-1,6.9286615E-1,3.540201E-1,6.8872483E-3,7.607092E-2,-2.0142059E-1,2.725265E-1,-6.659643E-1,3.9903436E-2,6.8607646E-1,9.164545E-2,3.9745295E-1,-1.9146565E-1,-6.0579713E-2,5.54254E-2,-6.353355E-1,-4.3828332E-1,-2.8535423E-1,-6.8897396E-1,-7.557764E-1,-6.996651E-1,-1.1859247E-1,6.410482E-2,-2.6641056E-1,-6.945646E-1,6.379344E-2,-3.447753E-2,6.729689E-2,8.6585927E-4,7.2854176E-2,2.3186337E-2,4.0166315E-2,2.6994778E-4,3.710796E-2,-4.7830783E-2,6.4216316E-2,2.228582E-3,-6.968519E-2,-2.2769675E-2,-2.4359511E-2,6.375209E-2,7.378157E-2,-9.129373E-3,2.6953487E-2,-6.431846E-2,-4.0674366E-2,6.382286E-2,5.5678957E-3,-4.2690646E-2,-4.0106103E-2,-7.145966E-2,-3.5109427E-3,-4.7900002E-2,3.846931E-2,-3.782425E-2,-7.260173E-2,-1.0852849E-2,-1.855391E-2,-7.5797245E-2,-7.130959E-2,-5.064335E-2,2.8480047E-2,-6.126987E-2,-6.966456E-2,-5.7157623E-3,-7.4800834E-2,-2.4321036E-2],"categories":[],"categories_nodes":[],"categories_segments":[],"categories_sizes":[],"default_left":[0,0,0,0,0,0,0,0,0,0,0,0,0,0,0,0,0,0,0,0,0,0,0,0,0,0,0,0,0,0,0,0,0,0,0,0,0,0,0,0,0,0,0,0,0,0,0,0,0,0,0,0,0,0,0,0,0,0,0,0,0,0,0,0,0,0,0,0,0,0,0,0,0,0,0,0,0,0,0,0,0,0,0,0,0,0,0,0,0,0,0,0,0,0,0,0,0,0,0,0,0],"id":6,"left_children":[1,3,5,7,9,11,13,15,17,19,21,23,25,27,29,31,33,35,37,39,41,43,45,47,49,51,53,-1,55,57,-1,59,-1,-1,61,63,65,-1,-1,67,69,71,73,75,77,79,81,-1,-1,83,85,87,89,91,93,95,-1,97,99,-1,-1,-1,-1,-1,-1,-1,-1,-1,-1,-1,-1,-1,-1,-1,-1,-1,-1,-1,-1,-1,-1,-1,-1,-1,-1,-1,-1,-1,-1,-1,-1,-1,-1,-1,-1,-1,-1,-1,-1,-1,-1],"loss_changes":[8.171259E2,3.5659393E1,2.7234344E1,4.8216248E0,1.1391919E1,4.9991455E0,1.30881E1,6.859741E-1,3.1515045E0,4.3542776E0,3.0066204E0,2.33638E0,1.4744568E0,1.0962276E0,2.12083E0,3.2962036E-1,9.848938E-1,1.6868057E0,5.6643295E-1,1.2388086E0,2.80612E0,2.6639862E0,1.9349412E0,2.4001355E0,1.264637E0,1.456315E0,6.820679E-2,0E0,1.2259557E0,1.2247357E0,0E0,1.6928928E0,0E0,0E0,1.0142899E0,1.7008781E-1,1.2960854E0,0E0,0E0,1.5844792E0,1.3604798E0,1.3943481E-1,1.5820645E0,1.395792E0,1.6387187E0,2.2424753E0,7.417909E-1,0E0,0E0,1.232296E0,1.2739315E0,1.4179264E0,3.8183403E-1,3.712616E-1,5.6877136E-1,1.3512701E0,0E0,1.5835794E0,1.5219116E-1,0E0,0E0,0E0,0E0,0E0,0E0,0E0,0E0,0E0,0E0,0E0,0E0,0E0,0E0,0E0,0E0,0E0,0E0,0E0,0E0,0E0,0E0,0E0,0E0,0E0,0E0,0E0,0E0,0E0,0E0,0E0,0E0,0E0,0E0,0E0,0E0,0E0,0E0,0E0,0E0,0E0,0E0],"parents":[2147483647,0,0,1,1,2,2,3,3,4,4,5,5,6,6,7,7,8,8,9,9,10,10,11,11,12,12,13,13,14,14,15,15,16,16,17,17,18,18,19,19,20,20,21,21,22,22,23,23,24,24,25,25,26,26,28,28,29,29,31,31,34,34,35,35,36,36,39,39,40,40,41,41,42,42,43,43,44,44,45,45,46,46,49,49,50,50,51,51,52,52,53,53,54,54,55,55,57,57,58,58],"right_children":[2,4,6,8,10,12,14,16,18,20,22,24,26,28,30,32,34,36,38,40,42,44,46,48,50,52,54,-1,56,58,-1,60,-1,-1,62,64,66,-1,-1,68,70,72,74,76,78,80,82,-1,-1,84,86,88,90,92,94,96,-1,98,100,-1,-1,-1,-1,-1,-1,-1,-1,-1,-1,-1,-1,-1,-1,-1,-1,-1,-1,-1,-1,-1,-1,-1,-1,-1,-1,-1,-1,-1,-1,-1,-1,-1,-1,-1,-1,-1,-1,-1,-1,-1,-1],"split_conditions":[7.237543E-1,9.9469286E-1,1.10414416E-1,2.0418297E-1,6.2054616E-1,9.0656734E-1,9.258193E-1,7.987005E-1,3.7191674E-1,1.5774968E-1,9.99138E-1,4.256115E-2,6.6934735E-1,9.018469E-1,9.974253E-1,1.4530259E-4,8.1734747E-1,1.6561054E-2,2.1295938E-1,2.2674484E-2,3.92922E-4,4.5915723E-2,9.069158E-2,2.441834E-3,5.8267516E-4,9.474545E-1,7.9656846E-4,6.661262E-2,9.160194E-1,9.602538E-1,5.3074E-2,1.371039E-4,7.726007E-2,-1.9071798E-4,8.815755E-1,9.8247045E-1,1.9010764E-1,6.8872483E-3,7.607092E-2,9.979703E-1,3.696945E-4,7.11305E-1,2.79409E-2,2.6284384E-3,1.2492278E-3,7.517526E-3,5.4085E-2,-6.0579713E-2,5.54254E-2,8.1961596E-1,9.98032E-2,8.662494E-3,9.5824376E-2,9.0841585E-1,9.7794676E-1,2.8044793E-1,6.410482E-2,1.1849793E-2,9.7356814E-1,6.379344E-2,-3.447753E-2,6.729689E-2,8.6585927E-4,7.2854176E-2,2.3186337E-2,4.0166315E-2,2.6994778E-4,3.710796E-2,-4.7830783E-2,6.4216316E-2,2.228582E-3,-6.968519E-2,-2.2769675E-2,-2.4359511E-2,6.375209E-2,7.378157E-2,-9.129373E-3,2.6953487E-2,-6.431846E-2,-4.0674366E-2,6.382286E-2,5.5678957E-3,-4.2690646E-2,-4.0106103E-2,-7.145966E-2,-3.5109427E-3,-4.7900002E-2,3.846931E-2,-3.782425E-2,-7.260173E-2,-1.0852849E-2,-1.855391E-2,-7.5797245E-2,-7.130959E-2,-5.064335E-2,2.8480047E-2,-6.126987E-2,-6.966456E-2,-5.7157623E-3,-7.4800834E-2,-2.4321036E-2],"split_indices":[0,7,5,0,1,0,0,7,5,4,7,7,7,0,5,5,7,4,0,4,5,2,4,2,5,0,5,0,0,0,0,5,0,0,4,7,5,0,0,7,5,0,2,5,5,4,0,0,0,0,1,7,2,0,4,5,0,2,4,0,0,0,0,0,0,0,0,0,0,0,0,0,0,0,0,0,0,0,0,0,0,0,0,0,0,0,0,0,0,0,0,0,0,0,0,0,0,0,0,0,0],"split_type":[0,0,0,0,0,0,0,0,0,0,0,0,0,0,0,0,0,0,0,0,0,0,0,0,0,0,0,0,0,0,0,0,0,0,0,0,0,0,0,0,0,0,0,0,0,0,0,0,0,0,0,0,0,0,0,0,0,0,0,0,0,0,0,0,0,0,0,0,0,0,0,0,0,0,0,0,0,0,0,0,0,0,0,0,0,0,0,0,0,0,0,0,0,0,0,0,0,0,0,0,0],"sum_hessian":[1.9604889E3,9.3447754E2,1.0260114E3,8.21477E2,1.13000565E2,9.688568E2,5.7154545E1,6.718781E2,1.4959885E2,5.018158E1,6.281898E1,1.6389241E2,8.0496436E2,2.5797823E1,3.1356722E1,6.011266E2,7.0751526E1,9.611145E1,5.348739E1,2.1738798E1,2.8442781E1,4.2238777E1,2.0580204E1,5.466491E0,1.5842593E2,3.9866768E1,7.650976E2,1.8450321E1,7.3475013E0,2.9883127E1,1.4735942E0,1.1699295E1,5.894273E2,2.3912687E0,6.836025E1,1.9612972E1,7.649848E1,1.4246576E0,5.206273E1,7.8758945E0,1.3862905E1,2.102148E1,7.4213E0,3.2028748E1,1.0210029E1,9.240512E0,1.1339693E1,1.9802096E0,3.4862816E0,8.0798035E1,7.762789E1,1.9443901E1,2.0422869E1,4.077843E2,3.573133E2,4.903971E0,2.4435303E0,1.7032158E1,1.285097E1,1.0277452E1,1.4218423E0,6.5953E1,2.4072483E0,1.766555E1,1.9474229E0,6.7237076E1,9.261401E0,2.4565258E0,5.4193687E0,4.964112E0,8.898792E0,1.9086327E1,1.9351543E0,5.43529E0,1.9860103E0,3.0077753E1,1.9509954E0,8.729879E0,1.4801491E0,1.9703125E0,7.2702E0,5.904837E0,5.4348555E0,2.1957516E1,5.8840523E1,7.291382E0,7.033651E1,1.9848409E0,1.7459059E1,1.8961946E1,1.460922E0,1.8923053E0,4.05892E2,3.3157635E2,2.5736933E1,2.9330258E0,1.9709452E0,4.8110933E0,1.2221065E1,1.0902748E1,1.9482219E0],"tree_param":{"num_deleted":"0","num_feature":"8","num_nodes":"101","size_leaf_vector":"1"}},{"base_weights":[2.213512E-2,6.4852935E-1,-6.384254E-1,6.863355E-1,-3.2987844E-2,-7.056918E-1,-1.4099355E-1,5.510818E-1,7.289185E-1,-5.6626815E-1,3.6682147E-1,-5.8001405E-1,-7.7619535E-1,-5.214349E-1,2.4731381E-1,2.8254676E-1,6.158352E-1,7.735452E-1,7.0788103E-1,-7.293662E-2,-2.3530968E-1,-5.2202225E-1,4.7521982E-1,-6.756505E-1,-4.2360854E-1,-7.7786577E-1,-2.773558E-2,5.8580283E-2,-5.753413E-1,5.158767E-1,-5.9812568E-2,-6.0633816E-2,3.540303E-1,6.2451136E-1,-2.9587973E-2,3.6220044E-1,7.772406E-2,2.0935236E-1,7.111523E-1,5.307162E-1,-7.768836E-2,-1.9483611E-2,-6.352868E-2,5.519618E-1,-2.5493031E-2,-5.2236146E-1,-7.357101E-1,-2.240247E-1,-4.8138466E-1,-5.3620297E-1,-7.813056E-2,-2.628644E-1,6.0818613E-2,-6.037146E-1,2.621287E-2,2.7889526E-1,6.98356E-1,-3.8272426E-1,2.7858928E-1,1.5375333E-2,5.6971636E-2,7.3384404E-2,5.6297977E-2,9.306311E-3,4.8404455E-2,5.1900722E-2,-1.7229306E-2,5.188891E-2,7.155405E-2,6.2290233E-2,2.056322E-2,7.572334E-2,3.3335593E-2,-5.4740876E-2,2.5857711E-2,-2.6818031E-2,-7.419848E-2,-3.814138E-2,3.8169537E-2,-4.9734216E-2,3.07499E-2,-7.071805E-2,3.4861475E-2,2.4292376E-2,-5.973043E-2,-2.9901931E-2,-6.883188E-2,-3.9172996E-2,4.0699985E-2,7.939654E-2,1.8359356E-2,-6.0118444E-2,-8.468719E-3,5.9956905E-2,-2.7690813E-2],"categories":[],"categories_nodes":[],"categories_segments":[],"categories_sizes":[],"default_left":[0,0,0,0,0,0,0,0,0,0,0,0,0,0,0,0,0,0,0,0,0,0,0,0,0,0,0,0,0,0,0,0,0,0,0,0,0,0,0,0,0,0,0,0,0,0,0,0,0,0,0,0,0,0,0,0,0,0,0,0,0,0,0,0,0,0,0,0,0,0,0,0,0,0,0,0,0,0,0,0,0,0,0,0,0,0,0,0,0,0,0,0,0,0,0],"id":7,"left_children":[1,3,5,7,9,11,13,15,17,19,21,23,25,27,29,31,33,35,37,-1,39,41,43,45,47,49,-1,51,53,55,57,-1,59,61,-1,63,-1,65,67,69,-1,-1,-1,71,-1,73,75,77,79,81,-1,83,-1,85,-1,87,89,91,93,-1,-1,-1,-1,-1,-1,-1,-1,-1,-1,-1,-1,-1,-1,-1,-1,-1,-1,-1,-1,-1,-1,-1,-1,-1,-1,-1,-1,-1,-1,-1,-1,-1,-1,-1,-1],"loss_changes":[8.247301E2,2.6381866E1,3.236255E1,5.181122E0,1.1875265E1,7.1199036E0,1.7385744E1,3.93322E0,1.4163208E-1,1.1152701E0,3.3199096E0,4.365608E0,2.37854E-1,1.8886395E0,4.855097E0,3.2480052E0,1.683464E0,5.961609E-2,6.8400574E-1,0E0,4.2898426E0,2.2311091E-2,1.7623239E0,1.3769531E0,1.2837963E0,3.1555176E-2,0E0,1.2114862E0,1.4502773E0,1.1590681E0,3.1860805E0,0E0,1.8483453E0,8.5162354E-1,0E0,8.18885E-2,0E0,6.503522E-1,5.6427002E-2,5.727172E-3,0E0,0E0,0E0,9.3688774E-1,0E0,1.2624102E0,1.97052E-1,2.9068027E0,1.3201675E0,1.8794813E0,0E0,8.985301E-1,0E0,1.1577339E0,0E0,1.4725175E0,6.920099E-1,9.1542935E-1,2.7227592E0,0E0,0E0,0E0,0E0,0E0,0E0,0E0,0E0,0E0,0E0,0E0,0E0,0E0,0E0,0E0,0E0,0E0,0E0,0E0,0E0,0E0,0E0,0E0,0E0,0E0,0E0,0E0,0E0,0E0,0E0,0E0,0E0,0E0,0E0,0E0,0E0],"parents":[2147483647,0,0,1,1,2,2,3,3,4,4,5,5,6,6,7,7,8,8,9,9,10,10,11,11,12,12,13,13,14,14,15,15,16,16,17,17,18,18,20,20,21,21,22,22,23,23,24,24,25,25,27,27,28,28,29,29,30,30,32,32,33,33,35,35,37,37,38,38,39,39,43,43,45,45,46,46,47,47,48,48,49,49,51,51,53,53,55,55,56,56,57,57,58,58],"right_children":[2,4,6,8,10,12,14,16,18,20,22,24,26,28,30,32,34,36,38,-1,40,42,44,46,48,50,-1,52,54,56,58,-1,60,62,-1,64,-1,66,68,70,-1,-1,-1,72,-1,74,76,78,80,82,-1,84,-1,86,-1,88,90,92,94,-1,-1,-1,-1,-1,-1,-1,-1,-1,-1,-1,-1,-1,-1,-1,-1,-1,-1,-1,-1,-1,-1,-1,-1,-1,-1,-1,-1,-1,-1,-1,-1,-1,-1,-1,-1],"split_conditions":[2.482515E-1,1.10414416E-1,9.962083E-1,9.258193E-1,9.258193E-1,9.344351E-1,3.3739284E-1,9.6271396E-1,2.1928884E-3,1.0921266E-1,9.354997E-4,4.0436965E-1,9.9515533E-1,2.9722473E-4,8.610885E-2,2.2968145E-1,9.876149E-1,1.1257391E-4,2.3412528E-3,-7.293662E-2,4.0841764E-1,3.4552474E-2,8.560574E-1,7.818148E-3,4.554731E-1,1.4530259E-4,-2.773558E-2,2.3437184E-4,2.6284384E-3,9.991646E-1,8.3906364E-1,-6.0633816E-2,9.044096E-1,3.4844931E-3,-2.9587973E-2,2.165461E-4,7.772406E-2,6.234122E-4,1.6665196E-1,9.106259E-1,-7.768836E-2,-1.9483611E-2,-6.352868E-2,4.0996373E-1,-2.5493031E-2,7.0115854E-3,6.8866715E-2,9.906963E-1,6.65591E-1,1.371039E-4,-7.813056E-2,6.78451E-2,6.0818613E-2,2.4996235E-4,2.621287E-2,6.898244E-4,2.6007282E-4,5.5776244E-1,4.9952736E-1,1.5375333E-2,5.6971636E-2,7.3384404E-2,5.6297977E-2,9.306311E-3,4.8404455E-2,5.1900722E-2,-1.7229306E-2,5.188891E-2,7.155405E-2,6.2290233E-2,2.056322E-2,7.572334E-2,3.3335593E-2,-5.4740876E-2,2.5857711E-2,-2.6818031E-2,-7.419848E-2,-3.814138E-2,3.8169537E-2,-4.9734216E-2,3.07499E-2,-7.071805E-2,3.4861475E-2,2.4292376E-2,-5.973043E-2,-2.9901931E-2,-6.883188E-2,-3.9172996E-2,4.0699985E-2,7.939654E-2,1.8359356E-2,-6.0118444E-2,-8.468719E-3,5.9956905E-2,-2.7690813E-2],"split_indices":[1,5,7,0,0,1,0,7,6,7,6,7,7,6,6,3,3,6,6,0,3,3,3,5,1,5,0,6,5,7,3,0,0,6,0,5,0,5,7,0,0,0,0,5,0,5,0,7,6,5,0,3,0,5,0,6,5,0,6,0,0,0,0,0,0,0,0,0,0,0,0,0,0,0,0,0,0,0,0,0,0,0,0,0,0,0,0,0,0,0,0,0,0,0,0],"split_type":[0,0,0,0,0,0,0,0,0,0,0,0,0,0,0,0,0,0,0,0,0,0,0,0,0,0,0,0,0,0,0,0,0,0,0,0,0,0,0,0,0,0,0,0,0,0,0,0,0,0,0,0,0,0,0,0,0,0,0,0,0,0,0,0,0,0,0,0,0,0,0,0,0,0,0,0,0,0,0,0,0,0,0,0,0,0,0,0,0,0,0,0,0,0,0],"sum_hessian":[1.9912024E3,1.02204193E3,9.691604E2,9.683188E2,5.372315E1,8.5334595E2,1.15814445E2,2.3520216E2,7.3311664E2,2.2840845E1,3.0882301E1,3.0999084E2,5.433551E2,5.832657E1,5.748788E1,4.6738613E1,1.8846355E2,2.2341542E2,5.097012E2,1.4494219E1,8.346627E0,2.9420805E0,2.794022E1,1.9030576E2,1.1968509E2,5.409842E2,2.370918E0,4.9525013E0,5.3374065E1,3.0306791E1,2.718109E1,2.9219909E0,4.3816624E1,1.8699902E2,1.4645262E0,2.8708248E0,2.205446E2,3.7464774E0,5.059547E2,3.4652598E0,4.8813677E0,1.4560863E0,1.4859941E0,2.5503712E1,2.4365082E0,5.6302727E1,1.3400302E2,2.7963713E1,9.172138E1,9.793922E0,5.311903E2,3.454065E0,1.4984365E0,5.1894993E1,1.479073E0,1.4284378E1,1.6022413E1,1.3841859E1,1.3339231E1,2.3608044E1,2.020858E1,6.3407276E1,1.2359174E2,1.444315E0,1.4265099E0,1.8696133E0,1.8768642E0,1.3951076E1,4.9200363E2,1.9859606E0,1.4792991E0,1.1882283E1,1.3621429E1,5.4842777E1,1.4599516E0,2.3538861E0,1.3164914E2,2.2490213E1,5.473499E0,9.026507E1,1.4563158E0,8.376125E0,1.4177971E0,1.483756E0,1.970309E0,1.2263453E1,3.963154E1,1.9609497E0,1.2323429E1,1.3055212E1,2.9672008E0,7.400309E0,6.4415493E0,8.403912E0,4.9353194E0],"tree_param":{"num_deleted":"0","num_feature":"8","num_nodes":"95","size_leaf_vector":"1"}},{"base_weights":[-1.7762352E-2,6.0393816E-1,-6.0592216E-1,6.724179E-1,9.765068E-2,-6.597779E-2,-6.470422E-1,5.086429E-1,7.1962386E-1,3.910615E-1,-2.5967932E-1,5.00585E-1,-2.4431133E-1,-7.063785E-1,-5.5336267E-1,6.216265E-1,3.340958E-1,7.333864E-2,6.024762E-1,1.2639473E-1,4.891629E-1,-5.5894923E-1,6.999555E-2,6.580288E-1,-5.173072E-2,-3.423284E-1,6.242883E-1,-7.077685E-2,-2.667459E-2,-3.301933E-1,-5.9763247E-1,7.0426956E-2,4.1935351E-1,-1.05977535E-1,3.8244328E-1,4.6217394E-1,7.341949E-2,2.9068115E-1,-4.478513E-1,6.6637653E-1,1.2699775E-1,-6.332431E-1,-1.7908186E-1,-1.0607812E-1,5.080879E-1,7.4504435E-2,3.7430462E-3,2.9197618E-1,-4.6790108E-1,1.5261779E-2,7.4613474E-2,-6.2043265E-2,-4.878213E-1,-3.7595838E-1,-6.217926E-1,6.7381516E-2,1.9873483E-2,3.6165033E-2,-4.2419817E-2,-3.3798344E-2,4.0296085E-2,-1.9265644E-2,5.208313E-2,-2.3899933E-2,3.685569E-2,-7.7568255E-2,1.2926257E-2,1.9598836E-2,6.913353E-2,-3.3451717E-2,3.9293222E-2,-2.3471717E-2,-6.5907076E-2,2.6371917E-2,-3.9190967E-2,3.20911E-2,-3.283882E-2,-2.3754926E-2,7.3606804E-2,7.245259E-2,-4.2250916E-2,9.367689E-3,-5.188362E-2,2.2963718E-2,-4.7636524E-2,-5.406337E-2,5.425711E-4,-6.3982815E-2,-9.751231E-3,-6.277504E-2,1.3077701E-2],"categories":[],"categories_nodes":[],"categories_segments":[],"categories_sizes":[],"default_left":[0,0,0,0,0,0,0,0,0,0,0,0,0,0,0,0,0,0,0,0,0,0,0,0,0,0,0,0,0,0,0,0,0,0,0,0,0,0,0,0,0,0,0,0,0,0,0,0,0,0,0,0,0,0,0,0,0,0,0,0,0,0,0,0,0,0,0,0,0,0,0,0,0,0,0,0,0,0,0,0,0,0,0,0,0,0,0,0,0,0,0],"id":8,"left_children":[1,3,5,7,9,11,13,15,17,19,21,23,25,27,29,31,33,-1,35,37,39,41,43,45,-1,47,49,-1,-1,51,53,-1,55,57,59,61,-1,63,65,67,69,71,73,75,77,-1,-1,79,81,-1,-1,83,85,87,89,-1,-1,-1,-1,-1,-1,-1,-1,-1,-1,-1,-1,-1,-1,-1,-1,-1,-1,-1,-1,-1,-1,-1,-1,-1,-1,-1,-1,-1,-1,-1,-1,-1,-1,-1,-1],"loss_changes":[6.978323E2,3.2100586E1,2.1730255E1,5.9508057E0,1.1813499E1,7.2465267E0,4.673767E0,3.4648514E0,5.767822E-1,1.5411806E0,5.067776E0,3.0983014E0,4.8368673E0,1.4984131E-1,3.3389664E0,1.5750122E0,1.6434555E0,0E0,9.917679E-1,1.8324873E0,2.783925E0,6.437197E-1,1.9931881E0,8.006997E-1,0E0,4.0747085E0,2.2293806E-1,0E0,0E0,2.5685673E0,1.3592911E0,0E0,1.8267951E0,1.379675E0,1.1427679E0,1.5436678E0,0E0,6.918373E-1,9.3415225E-1,2.1407127E-1,2.0853543E0,7.221031E-2,6.483364E-1,1.8862227E0,1.4294386E0,0E0,0E0,3.0214925E0,1.2401171E0,0E0,0E0,2.998674E0,1.0078373E0,2.2712955E0,1.2778397E0,0E0,0E0,0E0,0E0,0E0,0E0,0E0,0E0,0E0,0E0,0E0,0E0,0E0,0E0,0E0,0E0,0E0,0E0,0E0,0E0,0E0,0E0,0E0,0E0,0E0,0E0,0E0,0E0,0E0,0E0,0E0,0E0,0E0,0E0,0E0,0E0],"parents":[2147483647,0,0,1,1,2,2,3,3,4,4,5,5,6,6,7,7,8,8,9,9,10,10,11,11,12,12,13,13,14,14,15,15,16,16,18,18,19,19,20,20,21,21,22,22,23,23,25,25,26,26,29,29,30,30,32,32,33,33,34,34,35,35,37,37,38,38,39,39,40,40,41,41,42,42,43,43,44,44,47,47,48,48,51,51,52,52,53,53,54,54],"right_children":[2,4,6,8,10,12,14,16,18,20,22,24,26,28,30,32,34,-1,36,38,40,42,44,46,-1,48,50,-1,-1,52,54,-1,56,58,60,62,-1,64,66,68,70,72,74,76,78,-1,-1,80,82,-1,-1,84,86,88,90,-1,-1,-1,-1,-1,-1,-1,-1,-1,-1,-1,-1,-1,-1,-1,-1,-1,-1,-1,-1,-1,-1,-1,-1,-1,-1,-1,-1,-1,-1,-1,-1,-1,-1,-1,-1],"split_conditions":[7.404222E-1,9.962083E-1,3.78828E-1,8.2860965E-1,3.7879458E-1,5.5844216E-3,5.489162E-2,4.0436965E-1,7.987005E-1,8.260493E-4,8.610885E-2,9.6621567E-1,3.2936355E-1,9.9300474E-1,9.6271396E-1,4.9952736E-1,4.8018396E-1,7.333864E-2,9.5342815E-1,4.9973506E-4,1.6560285E-1,9.4998556E-1,4.9963513E-1,5.648798E-1,-5.173072E-2,8.517178E-1,6.917822E-2,-7.077685E-2,-2.667459E-2,9.0656734E-1,8.1961596E-1,7.0426956E-2,4.5907836E-2,9.069158E-2,1.8206409E-1,8.186749E-3,7.341949E-2,9.973489E-1,4.0123362E-2,9.801867E-4,9.977564E-1,2.3437184E-4,9.985397E-1,1.8101889E-1,1.01925945E-2,7.4504435E-2,3.7430462E-3,8.0043375E-1,6.78451E-2,1.5261779E-2,7.4613474E-2,4.0672305E-1,8.011664E-1,4.6483222E-3,9.876149E-1,6.7381516E-2,1.9873483E-2,3.6165033E-2,-4.2419817E-2,-3.3798344E-2,4.0296085E-2,-1.9265644E-2,5.208313E-2,-2.3899933E-2,3.685569E-2,-7.7568255E-2,1.2926257E-2,1.9598836E-2,6.913353E-2,-3.3451717E-2,3.9293222E-2,-2.3471717E-2,-6.5907076E-2,2.6371917E-2,-3.9190967E-2,3.20911E-2,-3.283882E-2,-2.3754926E-2,7.3606804E-2,7.245259E-2,-4.2250916E-2,9.367689E-3,-5.188362E-2,2.2963718E-2,-4.7636524E-2,-5.406337E-2,5.425711E-4,-6.3982815E-2,-9.751231E-3,-6.277504E-2,1.3077701E-2],"split_indices":[0,7,7,1,0,6,1,7,7,6,6,0,7,3,7,6,7,0,1,6,0,4,6,3,0,0,4,0,0,0,0,0,4,4,0,4,0,7,0,6,7,6,7,6,4,0,0,3,3,0,0,6,4,6,3,0,0,0,0,0,0,0,0,0,0,0,0,0,0,0,0,0,0,0,0,0,0,0,0,0,0,0,0,0,0,0,0,0,0,0,0],"split_type":[0,0,0,0,0,0,0,0,0,0,0,0,0,0,0,0,0,0,0,0,0,0,0,0,0,0,0,0,0,0,0,0,0,0,0,0,0,0,0,0,0,0,0,0,0,0,0,0,0,0,0,0,0,0,0,0,0,0,0,0,0,0,0,0,0,0,0,0,0,0,0,0,0,0,0,0,0,0,0,0,0,0,0,0,0,0,0,0,0,0,0],"sum_hessian":[1.9064215E3,9.2677203E2,9.796495E2,8.160642E2,1.1070781E2,6.951097E1,9.101385E2,1.8522496E2,6.3083923E2,6.0739216E1,4.9968594E1,1.6208815E1,5.330216E1,5.5320197E2,3.5693652E2,1.10886955E2,7.4338005E1,5.5981213E2,7.102714E1,1.704421E1,4.3695007E1,2.582757E1,2.4141024E1,1.43437195E1,1.8650955E0,4.8441647E1,4.8605103E0,5.5085046E2,2.3515286E0,6.0484734E1,2.9645178E2,7.696106E1,3.39259E1,7.2405305E0,6.709747E1,3.6576214E1,3.4450924E1,1.3636686E1,3.407524E0,2.8774948E1,1.4920057E1,2.1044674E1,4.7828975E0,1.7760689E1,6.380334E0,1.2403999E1,1.9397197E0,7.7861834E0,4.0655464E1,1.4602784E0,3.400232E0,2.2908083E1,3.7576653E1,3.0762285E1,2.656895E2,1.4800636E1,1.9125261E1,2.8767076E0,4.3638225E0,1.429539E0,6.566793E1,2.819202E0,3.375701E1,1.4827329E0,1.2153954E1,1.9536664E0,1.4538577E0,1.8959092E0,2.687904E1,5.360063E0,9.559995E0,1.8948313E0,1.9149841E1,1.4749842E0,3.307913E0,5.92913E0,1.1831559E1,1.4841769E0,4.8961573E0,4.841241E0,2.944942E0,3.3110304E0,3.7344437E1,1.3705345E1,9.202738E0,3.3855633E1,3.7210195E0,1.5128186E1,1.5634098E1,2.637672E2,1.9222834E0],"tree_param":{"num_deleted":"0","num_feature":"8","num_nodes":"91","size_leaf_vector":"1"}},{"base_weights":[9.581227E-3,5.8367115E-1,-6.162857E-1,6.264689E-1,-4.4625025E-2,-3.3629698E-1,-7.03884E-1,6.6749525E-1,4.4574267E-1,4.0907088E-1,-5.039318E-1,1.3629648E-1,-4.395802E-1,-6.444772E-1,-7.401823E-2,7.029705E-1,6.117827E-1,6.298491E-1,3.4913534E-1,-5.605889E-2,4.716605E-1,-2.639044E-1,-7.1857266E-2,3.300501E-1,-4.2962122E-1,-3.404142E-1,-6.548959E-1,-9.841112E-2,-6.632451E-1,7.110789E-2,5.456045E-1,-1.147451E-2,6.168515E-1,6.575834E-1,-2.7972534E-3,4.800285E-1,1.4720643E-1,5.4753995E-1,1.0713439E-1,5.7847583E-1,-5.6172764E-1,-6.2197685E-2,4.8067963E-1,-5.6362355E-1,2.4221603E-2,-1.98038E-1,-4.6741548E-1,-5.181184E-1,-7.208969E-1,-3.7538624E-1,5.5901315E-2,-5.416216E-1,-7.127527E-2,-2.2837495E-2,6.1066385E-2,6.802249E-2,5.4335427E-2,4.5319557E-2,7.2566174E-2,4.148445E-2,7.440827E-2,-6.605876E-2,2.2477766E-2,6.314137E-2,5.4588667E-3,4.6098597E-2,-6.786959E-2,7.06747E-2,1.5772063E-2,4.6929684E-2,-7.271539E-2,-4.8543237E-2,5.1987182E-2,2.6159665E-2,7.132127E-2,-7.2703324E-2,-1.5517207E-2,-3.0658884E-2,1.8946787E-2,-5.8752716E-2,-1.4049688E-2,-5.983851E-2,3.849001E-2,-7.468337E-2,-3.8929608E-2,-5.579734E-2,2.3831002E-2,-5.5996127E-2,5.129115E-3],"categories":[],"categories_nodes":[],"categories_segments":[],"categories_sizes":[],"default_left":[0,0,0,0,0,0,0,0,0,0,0,0,0,0,0,0,0,0,0,0,0,0,0,0,0,0,0,0,0,0,0,0,0,0,0,0,0,0,0,0,0,0,0,0,0,0,0,0,0,0,0,0,0,0,0,0,0,0,0,0,0,0,0,0,0,0,0,0,0,0,0,0,0,0,0,0,0,0,0,0,0,0,0,0,0,0,0,0,0],"id":9,"left_children":[1,3,5,7,9,11,13,15,17,19,21,23,25,27,-1,29,31,33,35,-1,37,39,-1,41,43,45,47,49,51,-1,53,-1,55,57,-1,59,61,63,65,67,69,71,73,75,-1,77,79,81,83,85,-1,87,-1,-1,-1,-1,-1,-1,-1,-1,-1,-1,-1,-1,-1,-1,-1,-1,-1,-1,-1,-1,-1,-1,-1,-1,-1,-1,-1,-1,-1,-1,-1,-1,-1,-1,-1,-1,-1],"loss_changes":[6.8651306E2,2.682486E1,2.2183563E1,6.6207275E0,1.3644241E1,1.0786434E1,1.0224304E0,1.0688782E0,2.903965E0,2.2668004E0,1.4844065E0,4.547095E0,3.632801E0,2.7168655E0,0E0,1.9474792E-1,1.1857452E0,1.0984745E0,3.033267E0,0E0,8.136263E-1,4.569821E0,0E0,1.83167E0,1.0981458E0,2.1806936E0,1.307621E-1,2.0661361E0,1.1931763E0,0E0,1.4826155E0,0E0,1.0315628E0,4.6212387E-1,0E0,9.100685E-1,3.1328902E0,1.0346985E0,2.169452E0,1.5364492E-1,2.5598326E0,2.5549514E0,9.4175005E-1,5.0162625E-1,0E0,2.6243043E0,2.4977684E0,1.8058376E0,1.1346817E-2,1.0037116E0,0E0,8.990593E-1,0E0,0E0,0E0,0E0,0E0,0E0,0E0,0E0,0E0,0E0,0E0,0E0,0E0,0E0,0E0,0E0,0E0,0E0,0E0,0E0,0E0,0E0,0E0,0E0,0E0,0E0,0E0,0E0,0E0,0E0,0E0,0E0,0E0,0E0,0E0,0E0,0E0],"parents":[2147483647,0,0,1,1,2,2,3,3,4,4,5,5,6,6,7,7,8,8,9,9,10,10,11,11,12,12,13,13,15,15,16,16,17,17,18,18,20,20,21,21,23,23,24,24,25,25,26,26,27,27,28,28,30,30,32,32,33,33,35,35,36,36,37,37,38,38,39,39,40,40,41,41,42,42,43,43,45,45,46,46,47,47,48,48,49,49,51,51],"right_children":[2,4,6,8,10,12,14,16,18,20,22,24,26,28,-1,30,32,34,36,-1,38,40,-1,42,44,46,48,50,52,-1,54,-1,56,58,-1,60,62,64,66,68,70,72,74,76,-1,78,80,82,84,86,-1,88,-1,-1,-1,-1,-1,-1,-1,-1,-1,-1,-1,-1,-1,-1,-1,-1,-1,-1,-1,-1,-1,-1,-1,-1,-1,-1,-1,-1,-1,-1,-1,-1,-1,-1,-1,-1,-1],"split_conditions":[2.8804162E-1,8.997161E-2,8.039493E-1,9.2672996E-2,6.4724885E-2,3.4683154E-4,5.6300797E-3,4.533502E-2,4.9654767E-3,6.898244E-4,5.90929E-1,4.988577E-1,2.8044793E-1,8.260493E-4,-7.401823E-2,1.1933157E-1,1.3096802E-4,4.713918E-3,1.5373512E-1,-5.605889E-2,7.034869E-1,4.694965E-1,-7.1857266E-2,1.7572618E-1,3.5632837E-1,4.5788217E-1,5.2794296E-1,5.5156613E-4,9.42976E-1,7.110789E-2,1.2724887E-1,-1.147451E-2,8.094809E-4,3.1695798E-2,-2.7972534E-3,9.347577E-1,5.769711E-2,8.2538784E-1,4.533502E-2,3.9253992E-1,7.436748E-2,9.5192695E-1,5.9950445E-3,9.323478E-1,2.4221603E-2,2.9336885E-1,7.063242E-1,5.091183E-1,7.891368E-1,4.3413637E-4,5.5901315E-2,5.134388E-3,-7.127527E-2,-2.2837495E-2,6.1066385E-2,6.802249E-2,5.4335427E-2,4.5319557E-2,7.2566174E-2,4.148445E-2,7.440827E-2,-6.605876E-2,2.2477766E-2,6.314137E-2,5.4588667E-3,4.6098597E-2,-6.786959E-2,7.06747E-2,1.5772063E-2,4.6929684E-2,-7.271539E-2,-4.8543237E-2,5.1987182E-2,2.6159665E-2,7.132127E-2,-7.2703324E-2,-1.5517207E-2,-3.0658884E-2,1.8946787E-2,-5.8752716E-2,-1.4049688E-2,-5.983851E-2,3.849001E-2,-7.468337E-2,-3.8929608E-2,-5.579734E-2,2.3831002E-2,-5.5996127E-2,5.129115E-3],"split_indices":[1,5,1,1,1,5,5,1,6,6,5,6,5,6,0,2,6,5,1,0,4,3,0,4,4,6,1,6,1,0,2,0,5,3,0,3,6,3,1,4,1,3,2,3,0,6,6,1,1,5,0,5,0,0,0,0,0,0,0,0,0,0,0,0,0,0,0,0,0,0,0,0,0,0,0,0,0,0,0,0,0,0,0,0,0,0,0,0,0],"split_type":[0,0,0,0,0,0,0,0,0,0,0,0,0,0,0,0,0,0,0,0,0,0,0,0,0,0,0,0,0,0,0,0,0,0,0,0,0,0,0,0,0,0,0,0,0,0,0,0,0,0,0,0,0,0,0,0,0,0,0,0,0,0,0,0,0,0,0,0,0,0,0,0,0,0,0,0,0,0,0,0,0,0,0,0,0,0,0,0,0],"sum_hessian":[1.9086742E3,9.9555096E2,9.1312317E2,9.320643E2,6.3486683E1,2.187563E2,6.943669E2,7.574284E2,1.746359E2,3.1993444E1,3.149324E1,3.917651E1,1.7957979E2,2.704674E2,4.2389948E2,4.556639E2,3.017645E2,5.8201153E1,1.1643474E2,1.4574561E0,3.0535988E1,1.5919915E1,1.5573325E1,2.9495056E1,9.681454E0,1.2471975E2,5.4860043E1,9.194347E0,2.6127307E2,4.2998996E2,2.567393E1,1.9408262E0,2.9982367E2,5.584696E1,2.354195E0,6.980739E1,4.662735E1,2.4859247E1,5.6767397E0,3.9121685E0,1.2007746E1,8.346744E0,2.1148312E1,8.205821E0,1.4756334E0,6.000728E1,6.471247E1,2.0736599E1,3.4123444E1,6.770793E0,2.423554E0,7.903968E1,1.8223338E2,1.7961184E0,2.3877811E1,1.5656747E2,1.4325621E2,1.5867068E1,3.997989E1,5.804864E1,1.1758748E1,3.4267492E0,4.3200603E1,2.1004528E1,3.8547208E0,4.1992407E0,1.4774991E0,2.477246E0,1.4349226E0,1.4062642E0,1.0601482E1,4.9288783E0,3.4178653E0,1.1983213E1,9.165098E0,5.303907E0,2.901914E0,4.7039158E1,1.296812E1,4.6742027E1,1.7970446E1,1.9353659E1,1.3829411E0,3.0486666E1,3.636776E0,5.2882347E0,1.4825587E0,7.672213E1,2.3175457E0],"tree_param":{"num_deleted":"0","num_feature":"8","num_nodes":"89","size_leaf_vector":"1"}},{"base_weights":[-1.4754852E-2,5.752653E-1,-5.583877E-1,6.295828E-1,1.2099238E-1,1.1751567E-2,-6.0322845E-1,6.7638224E-1,4.3575487E-1,3.8218942E-1,-1.7637065E-1,3.437142E-1,-2.3215762E-1,-4.214023E-1,-6.409151E-1,7.052845E-1,6.044804E-1,3.411584E-1,6.708278E-1,5.200888E-1,-4.2055424E-2,1.1613594E-1,-3.7847424E-1,-1.3001847E-1,6.354577E-1,-4.0842393E-1,1.6176309E-1,-4.4664046E-1,2.8986984E-1,-5.81361E-1,-6.635629E-1,3.6859858E-1,7.074117E-2,5.128491E-1,6.870306E-1,3.6232346E-1,-7.6589994E-2,3.0639848E-1,6.9087766E-2,6.1815983E-1,1.1962125E-1,2.242746E-1,-4.102757E-1,4.8759088E-1,-1.8522443E-1,-4.2371398E-1,2.3360694E-2,-6.961205E-2,2.710636E-1,7.16526E-2,4.152779E-1,-4.5090365E-1,2.3620201E-2,5.041528E-1,-2.6210603E-1,-4.6006975E-1,3.8234785E-2,7.0142746E-2,-5.4981437E-2,-5.8806676E-1,8.21344E-3,-1.8665737E-2,-6.649473E-1,4.8945963E-2,9.437284E-3,5.632726E-2,2.6275432E-2,3.4992956E-2,6.960425E-2,5.362582E-2,2.4117354E-2,-1.1264551E-3,4.6350796E-2,2.7201807E-2,7.344779E-2,5.03218E-2,-3.6521982E-2,6.129974E-2,-2.8510515E-2,-7.788661E-2,2.302179E-2,7.4356414E-2,-1.2481769E-2,-5.0531477E-2,5.133857E-3,3.1122218E-3,-4.9458075E-2,7.1658075E-2,-2.4056202E-2,5.869284E-2,1.0430802E-2,-6.111127E-2,-2.355037E-2,-1.6905254E-2,6.8377666E-2,-6.0153704E-2,2.3797285E-2,-2.9061763E-2,-5.2869022E-2,-6.398927E-2,-4.916347E-2,-6.66313E-2,-3.0044133E-2],"categories":[],"categories_nodes":[],"categories_segments":[],"categories_sizes":[],"default_left":[0,0,0,0,0,0,0,0,0,0,0,0,0,0,0,0,0,0,0,0,0,0,0,0,0,0,0,0,0,0,0,0,0,0,0,0,0,0,0,0,0,0,0,0,0,0,0,0,0,0,0,0,0,0,0,0,0,0,0,0,0,0,0,0,0,0,0,0,0,0,0,0,0,0,0,0,0,0,0,0,0,0,0,0,0,0,0,0,0,0,0,0,0,0,0,0,0,0,0,0,0,0,0],"id":10,"left_children":[1,3,5,7,9,11,13,15,17,19,21,23,25,27,29,31,33,35,37,39,41,43,45,47,49,51,53,55,57,59,61,63,-1,65,67,69,-1,71,-1,73,75,77,79,81,83,85,-1,-1,87,-1,89,91,-1,93,95,97,-1,-1,-1,99,-1,-1,101,-1,-1,-1,-1,-1,-1,-1,-1,-1,-1,-1,-1,-1,-1,-1,-1,-1,-1,-1,-1,-1,-1,-1,-1,-1,-1,-1,-1,-1,-1,-1,-1,-1,-1,-1,-1,-1,-1,-1,-1],"loss_changes":[5.814958E2,2.137558E1,2.4128784E1,6.7470093E0,7.3751802E0,5.7295785E0,5.7240906E0,8.6938477E-1,3.190979E0,2.970736E0,2.68539E0,4.2229543E0,2.900414E0,2.8777866E0,5.889282E-1,5.3451538E-2,1.052803E0,2.894641E0,1.0319328E-1,1.4230032E0,1.3953484E0,2.2197485E0,8.371825E-1,2.9695582E0,3.640032E-2,8.8651943E-1,2.0674796E0,1.8262997E0,2.4082296E0,9.7006226E-1,2.1687317E-1,1.1430389E-1,0E0,1.0119667E0,4.436493E-2,2.1944933E0,0E0,2.070587E-1,0E0,1.0232782E0,1.8088821E0,1.8298353E0,1.5796123E0,1.4716325E0,8.7606406E-1,8.270025E-1,0E0,0E0,1.9704461E0,0E0,3.3449292E-1,7.9015493E-1,0E0,1.0489724E0,1.2662687E0,1.5479431E0,0E0,0E0,0E0,7.110367E-1,0E0,0E0,5.596924E-2,0E0,0E0,0E0,0E0,0E0,0E0,0E0,0E0,0E0,0E0,0E0,0E0,0E0,0E0,0E0,0E0,0E0,0E0,0E0,0E0,0E0,0E0,0E0,0E0,0E0,0E0,0E0,0E0,0E0,0E0,0E0,0E0,0E0,0E0,0E0,0E0,0E0,0E0,0E0,0E0],"parents":[2147483647,0,0,1,1,2,2,3,3,4,4,5,5,6,6,7,7,8,8,9,9,10,10,11,11,12,12,13,13,14,14,15,15,16,16,17,17,18,18,19,19,20,20,21,21,22,22,23,23,24,24,25,25,26,26,27,27,28,28,29,29,30,30,31,31,33,33,34,34,35,35,37,37,39,39,40,40,41,41,42,42,43,43,44,44,45,45,48,48,50,50,51,51,53,53,54,54,55,55,59,59,62,62],"right_children":[2,4,6,8,10,12,14,16,18,20,22,24,26,28,30,32,34,36,38,40,42,44,46,48,50,52,54,56,58,60,62,64,-1,66,68,70,-1,72,-1,74,76,78,80,82,84,86,-1,-1,88,-1,90,92,-1,94,96,98,-1,-1,-1,100,-1,-1,102,-1,-1,-1,-1,-1,-1,-1,-1,-1,-1,-1,-1,-1,-1,-1,-1,-1,-1,-1,-1,-1,-1,-1,-1,-1,-1,-1,-1,-1,-1,-1,-1,-1,-1,-1,-1,-1,-1,-1,-1],"split_conditions":[7.11305E-1,9.962083E-1,3.78828E-1,1.9546477E-1,3.7879458E-1,9.018469E-1,9.0656734E-1,4.1875668E-2,4.9896526E-1,3.332174E-2,1.7572618E-1,1.388098E-2,3.9253992E-1,5.7362325E-2,9.448849E-1,1.3280323E-3,1.4675454E-2,7.071145E-1,2.1295938E-1,9.993793E-1,1.459007E-1,8.3906364E-1,6.971845E-1,5.4641623E-2,8.5632974E-1,4.993055E-1,9.474545E-1,9.8613757E-1,2.3728597E-1,2.571911E-1,4.5797285E-1,1.371039E-4,7.074117E-2,3.5632837E-1,3.808937E-3,4.2544004E-2,-7.6589994E-2,6.8267435E-1,6.9087766E-2,2.5583299E-2,1.5644834E-4,9.981445E-1,9.977564E-1,5.5776244E-1,2.2674484E-2,1.3280323E-3,2.3360694E-2,-6.961205E-2,8.517178E-1,7.16526E-2,3.1867158E-1,1.49066625E-2,2.3620201E-2,9.1387963E-1,9.150936E-1,8.1961596E-1,3.8234785E-2,7.0142746E-2,-5.4981437E-2,1.2796348E-3,8.21344E-3,-1.8665737E-2,9.9300474E-1,4.8945963E-2,9.437284E-3,5.632726E-2,2.6275432E-2,3.4992956E-2,6.960425E-2,5.362582E-2,2.4117354E-2,-1.1264551E-3,4.6350796E-2,2.7201807E-2,7.344779E-2,5.03218E-2,-3.6521982E-2,6.129974E-2,-2.8510515E-2,-7.788661E-2,2.302179E-2,7.4356414E-2,-1.2481769E-2,-5.0531477E-2,5.133857E-3,3.1122218E-3,-4.9458075E-2,7.1658075E-2,-2.4056202E-2,5.869284E-2,1.0430802E-2,-6.111127E-2,-2.355037E-2,-1.6905254E-2,6.8377666E-2,-6.0153704E-2,2.3797285E-2,-2.9061763E-2,-5.2869022E-2,-6.398927E-2,-4.916347E-2,-6.66313E-2,-3.0044133E-2],"split_indices":[0,7,7,0,0,0,0,0,5,2,4,5,4,5,0,2,5,2,0,7,0,3,0,4,0,2,0,3,2,5,7,5,0,4,2,4,0,2,0,0,5,7,7,0,4,2,0,0,0,0,3,4,0,0,5,0,0,0,0,5,0,0,3,0,0,0,0,0,0,0,0,0,0,0,0,0,0,0,0,0,0,0,0,0,0,0,0,0,0,0,0,0,0,0,0,0,0,0,0,0,0,0,0],"split_type":[0,0,0,0,0,0,0,0,0,0,0,0,0,0,0,0,0,0,0,0,0,0,0,0,0,0,0,0,0,0,0,0,0,0,0,0,0,0,0,0,0,0,0,0,0,0,0,0,0,0,0,0,0,0,0,0,0,0,0,0,0,0,0,0,0,0,0,0,0,0,0,0,0,0,0,0,0,0,0,0,0,0,0,0,0,0,0,0,0,0,0,0,0,0,0,0,0,0,0,0,0,0,0],"sum_hessian":[1.8108994E3,8.6837225E2,9.425271E2,7.752852E2,9.308704E1,6.8777336E1,8.7374976E2,6.2249524E2,1.5278993E2,4.9405285E1,4.368176E1,2.8957172E1,3.9820168E1,1.5209953E2,7.2165027E2,4.3773227E2,1.8476297E2,1.1069577E2,4.2094162E1,3.71152E1,1.2290087E1,1.8022696E1,2.5659065E1,1.1247627E1,1.7709545E1,2.7484816E1,1.233535E1,1.4724681E2,4.852723E0,2.0617308E2,5.154772E2,3.8424888E0,4.338898E2,9.098343E1,9.377954E1,1.0927926E2,1.4165171E0,3.0442023E0,3.904996E1,2.9377342E1,7.7378564E0,7.358605E0,4.9314823E0,7.7957435E0,1.0226952E1,2.4179663E1,1.4794023E0,4.359236E0,6.8883915E0,1.129613E1,6.4134145E0,2.606753E1,1.4172858E0,6.718736E0,5.6166143E0,1.4533742E2,1.9093852E0,3.3670645E0,1.4856586E0,2.0422275E2,1.9503231E0,1.8851706E0,5.13592E2,2.1222563E0,1.7202327E0,7.467535E1,1.6308084E1,3.4788268E0,9.030071E1,4.3458935E1,6.582032E1,1.314562E0,1.7296405E0,8.22872E0,2.114862E1,4.2988153E0,3.4390414E0,4.05823E0,3.300375E0,2.9930215E0,1.9384606E0,5.3467546E0,2.448989E0,3.8633857E0,6.363566E0,3.335114E0,2.084455E1,3.4679494E0,3.4204423E0,3.5606046E0,2.85281E0,1.3895385E1,1.2172145E1,1.4275037E0,5.2912326E0,3.2248483E0,2.391766E0,4.340004E1,1.01937386E2,1.2916786E2,7.505489E1,5.1084998E2,2.7420363E0],"tree_param":{"num_deleted":"0","num_feature":"8","num_nodes":"103","size_leaf_vector":"1"}},{"base_weights":[1.5361845E-2,-5.724699E-1,5.5298364E-1,-6.344164E-1,-1.0027327E-1,2.8186617E-2,5.955733E-1,-7.041367E-2,-5.174839E-1,-3.6081138E-1,2.2135189E-1,-1.9701728E-1,4.0672943E-1,2.1788965E-1,6.158726E-1,-6.111868E-1,-3.920872E-1,-5.0440156E-1,-1.3820855E-2,3.3677956E-1,-3.4525052E-1,-5.3299975E-1,1.8280879E-1,4.7678208E-1,-3.2136846E-2,5.3561985E-1,5.4312065E-2,5.408429E-1,6.5982085E-1,-6.294955E-1,-1.8453255E-1,-4.080796E-1,3.1716935E-2,-1.9986106E-1,-6.343746E-1,-2.6476368E-1,3.286389E-1,1.2548484E-1,5.5578935E-1,2.0501636E-2,-4.9429837E-1,-5.787141E-1,1.1342222E-2,5.65736E-1,-1.2023961E-2,7.059319E-2,3.2308996E-1,-1.0676143E-2,7.07032E-2,-1.4743756E-2,6.2334318E-2,3.506983E-1,5.768615E-1,5.443851E-3,6.613524E-1,-6.8602435E-2,-5.234567E-2,-4.30433E-2,2.1822743E-2,-4.4876006E-2,-9.877644E-3,-4.1060463E-2,1.459049E-2,-6.87448E-2,-1.3469848E-2,2.3293925E-2,-6.392356E-2,6.4164765E-2,-1.5272865E-2,-2.7056033E-2,3.5450872E-2,-2.9245246E-2,6.430704E-2,-1.3005278E-2,-5.7023335E-2,-7.219354E-2,-3.9163522E-2,6.724353E-2,5.7769297E-3,-5.8814354E-2,1.3462539E-2,-3.438763E-2,4.0629376E-2,4.4976857E-2,-3.3503227E-2,-7.5861126E-2,8.266091E-3,-1.8966854E-2,4.241927E-2,5.823501E-2,-1.66493E-3,7.119663E-2,6.353979E-2],"categories":[],"categories_nodes":[],"categories_segments":[],"categories_sizes":[],"default_left":[0,0,0,0,0,0,0,0,0,0,0,0,0,0,0,0,0,0,0,0,0,0,0,0,0,0,0,0,0,0,0,0,0,0,0,0,0,0,0,0,0,0,0,0,0,0,0,0,0,0,0,0,0,0,0,0,0,0,0,0,0,0,0,0,0,0,0,0,0,0,0,0,0,0,0,0,0,0,0,0,0,0,0,0,0,0,0,0,0,0,0,0,0],"id":11,"left_children":[1,3,5,7,9,11,13,-1,15,17,19,21,23,25,27,29,31,33,35,37,39,41,43,45,-1,47,49,51,53,55,57,59,-1,61,63,65,67,69,71,-1,73,75,-1,77,79,-1,81,83,-1,85,-1,87,89,-1,91,-1,-1,-1,-1,-1,-1,-1,-1,-1,-1,-1,-1,-1,-1,-1,-1,-1,-1,-1,-1,-1,-1,-1,-1,-1,-1,-1,-1,-1,-1,-1,-1,-1,-1,-1,-1,-1,-1],"loss_changes":[5.7392285E2,2.5312103E1,2.1183289E1,5.886383E0,8.610016E0,6.2391872E0,6.5915527E0,0E0,3.169815E0,2.8140674E0,3.1363542E0,5.9641657E0,1.5444117E0,2.3769107E0,2.3865051E0,1.1671181E0,1.568655E0,1.4572554E0,1.5995522E0,1.7289224E0,7.82805E-1,7.9404736E-1,1.6722319E0,6.6239023E-1,0E0,1.4702578E0,1.2537605E0,1.9403915E0,4.4621277E-1,5.82634E-1,9.035053E-1,1.5225201E0,0E0,1.0385718E0,6.390362E-1,2.145216E0,1.2866783E0,2.0074387E0,1.5795054E0,0E0,1.1478281E-1,3.3848047E-1,0E0,3.7028146E-1,1.4119072E0,0E0,1.0818789E0,8.549758E-1,0E0,2.1800027E0,0E0,2.1605325E0,8.614807E-1,0E0,2.2903442E-1,0E0,0E0,0E0,0E0,0E0,0E0,0E0,0E0,0E0,0E0,0E0,0E0,0E0,0E0,0E0,0E0,0E0,0E0,0E0,0E0,0E0,0E0,0E0,0E0,0E0,0E0,0E0,0E0,0E0,0E0,0E0,0E0,0E0,0E0,0E0,0E0,0E0,0E0],"parents":[2147483647,0,0,1,1,2,2,3,3,4,4,5,5,6,6,8,8,9,9,10,10,11,11,12,12,13,13,14,14,15,15,16,16,17,17,18,18,19,19,20,20,21,21,22,22,23,23,25,25,26,26,27,27,28,28,29,29,30,30,31,31,33,33,34,34,35,35,36,36,37,37,38,38,40,40,41,41,43,43,44,44,46,46,47,47,49,49,51,51,52,52,54,54],"right_children":[2,4,6,8,10,12,14,-1,16,18,20,22,24,26,28,30,32,34,36,38,40,42,44,46,-1,48,50,52,54,56,58,60,-1,62,64,66,68,70,72,-1,74,76,-1,78,80,-1,82,84,-1,86,-1,88,90,-1,92,-1,-1,-1,-1,-1,-1,-1,-1,-1,-1,-1,-1,-1,-1,-1,-1,-1,-1,-1,-1,-1,-1,-1,-1,-1,-1,-1,-1,-1,-1,-1,-1,-1,-1,-1,-1,-1,-1],"split_conditions":[7.11305E-1,9.962083E-1,3.78828E-1,5.6508064E-2,3.593209E-1,5.061419E-1,8.1961596E-1,-7.041367E-2,3.037191E-1,2.8909005E-2,4.9873048E-1,9.258193E-1,3.2936355E-1,4.9654767E-3,9.448849E-1,9.9833786E-1,7.063242E-1,9.801867E-4,1.6560285E-1,5.8090514E-1,2.5976968E-3,4.9840742E-1,1.49066625E-2,1.8758943E-2,-3.2136846E-2,3.4552474E-2,8.9149255E-1,9.6271396E-1,4.5797285E-1,4.9963513E-1,1.3491096E-2,6.278168E-1,3.1716935E-2,2.2302431E-1,9.994861E-1,4.1875668E-2,9.976211E-1,2.2143295E-1,1.1820197E-3,2.0501636E-2,9.898742E-3,8.5632974E-1,1.1342222E-2,9.7160983E-1,8.73012E-2,7.059319E-2,2.809364E-2,1.3583465E-2,7.07032E-2,5.769711E-2,6.2334318E-2,2.1105725E-3,9.876149E-1,5.443851E-3,2.1928884E-3,-6.8602435E-2,-5.234567E-2,-4.30433E-2,2.1822743E-2,-4.4876006E-2,-9.877644E-3,-4.1060463E-2,1.459049E-2,-6.87448E-2,-1.3469848E-2,2.3293925E-2,-6.392356E-2,6.4164765E-2,-1.5272865E-2,-2.7056033E-2,3.5450872E-2,-2.9245246E-2,6.430704E-2,-1.3005278E-2,-5.7023335E-2,-7.219354E-2,-3.9163522E-2,6.724353E-2,5.7769297E-3,-5.8814354E-2,1.3462539E-2,-3.438763E-2,4.0629376E-2,4.4976857E-2,-3.3503227E-2,-7.5861126E-2,8.266091E-3,-1.8966854E-2,4.241927E-2,5.823501E-2,-1.66493E-3,7.119663E-2,6.353979E-2],"split_indices":[0,7,7,0,0,6,0,0,7,2,6,0,7,6,0,6,6,6,0,0,2,6,4,4,0,3,4,7,7,6,2,0,0,3,7,0,7,4,2,0,4,0,0,0,4,0,4,3,0,6,0,2,3,0,6,0,0,0,0,0,0,0,0,0,0,0,0,0,0,0,0,0,0,0,0,0,0,0,0,0,0,0,0,0,0,0,0,0,0,0,0,0,0],"split_type":[0,0,0,0,0,0,0,0,0,0,0,0,0,0,0,0,0,0,0,0,0,0,0,0,0,0,0,0,0,0,0,0,0,0,0,0,0,0,0,0,0,0,0,0,0,0,0,0,0,0,0,0,0,0,0,0,0,0,0,0,0,0,0,0,0,0,0,0,0,0,0,0,0,0,0,0,0,0,0,0,0,0,0,0,0,0,0,0,0,0,0,0,0],"sum_hessian":[1.8140306E3,8.665196E2,9.4751105E2,7.6572253E2,1.0079707E2,7.124756E1,8.762635E2,4.765567E2,2.8916583E2,5.56196E1,4.5177475E1,4.4972134E1,2.6275429E1,4.5292816E1,8.3097064E2,1.6328036E2,1.2588548E2,3.9019196E1,1.6600405E1,3.786855E1,7.308927E0,2.3649363E1,2.1322771E1,2.428414E1,1.9912887E0,1.4620265E1,3.067255E1,3.118601E2,5.1911053E2,1.5610606E2,7.174295E0,1.2352487E2,2.3606174E0,1.2430632E1,2.6588562E1,9.711226E0,6.8891783E0,2.0074337E1,1.7794212E1,1.4777486E0,5.831178E0,2.2185188E1,1.4641736E0,6.548517E0,1.4774254E1,8.306409E0,1.5977731E1,3.7157552E0,1.09045105E1,2.8221739E1,2.4508114E0,5.1376514E1,2.6048358E2,1.4021845E0,5.177084E2,9.8256386E1,5.7849674E1,4.4119325E0,2.7623627E0,1.0876845E2,1.4756422E1,7.606789E0,4.823842E0,2.3695904E1,2.8926597E0,4.3318315E0,5.379395E0,3.9728613E0,2.916317E0,7.288741E0,1.2785596E1,1.4408264E0,1.6353386E1,1.4738909E0,4.3572874E0,1.0946176E1,1.1239014E1,5.1441917E0,1.4043252E0,2.3868494E0,1.2387404E1,1.4246571E0,1.4553074E1,1.3759103E0,2.339845E0,2.4816256E0,2.5740112E1,5.961789E0,4.5414726E1,2.5811545E2,2.3681476E0,1.6652913E2,3.5117923E2],"tree_param":{"num_deleted":"0","num_feature":"8","num_nodes":"93","size_leaf_vector":"1"}},{"base_weights":[-2.5847485E-2,-5.4763E-1,5.237615E-1,-3.2383732E-2,-5.847429E-1,2.3953316E-1,6.3954765E-1,-5.094141E-1,2.2330806E-1,-6.176877E-1,-4.2395583E-1,4.406472E-1,-1.296688E-1,6.5156734E-1,2.423127E-1,-5.7708514E-1,2.5357518E-2,5.727917E-1,-1.2796918E-1,-6.4161754E-1,-5.514368E-1,-4.495668E-1,3.3601826E-1,3.3435696E-1,6.528348E-2,-3.1188524E-1,3.870499E-2,5.9041893E-1,6.750719E-1,4.5189306E-1,-3.294142E-1,-1.585801E-1,-6.4812146E-2,1.5735129E-1,6.976038E-2,-6.647181E-2,8.553814E-2,-6.1562467E-1,-6.7640744E-2,-2.3555183E-1,-5.613197E-1,-5.440057E-1,-3.750992E-1,5.9953194E-2,-2.1122241E-2,5.1504356E-1,1.8836166E-1,-4.1933665E-1,1.1527517E-1,-3.0660465E-1,2.3306888E-1,6.376292E-1,4.426747E-1,3.43669E-1,6.7722636E-1,4.854052E-2,6.701157E-2,-6.460731E-2,2.068328E-2,-4.799924E-2,2.6568368E-2,5.842324E-2,-3.7933078E-2,4.8761945E-2,-1.9766621E-2,-6.2176973E-2,1.7805614E-2,4.2613868E-2,-4.478221E-2,-3.3790357E-2,-5.777025E-2,-5.695541E-2,7.2390134E-3,-3.1884585E-2,-7.0739694E-2,9.704168E-3,5.420956E-2,4.911338E-3,4.9047705E-2,1.9350776E-2,-4.9232334E-2,-3.1756353E-2,6.718322E-2,1.436384E-2,-5.4678954E-2,3.264415E-2,-6.1285544E-2,5.0339438E-2,6.60494E-2,-1.3454819E-2,5.085672E-2,4.9869433E-2,-4.6890546E-3,6.78974E-2,2.539965E-2,3.2890987E-2,-2.7893672E-2],"categories":[],"categories_nodes":[],"categories_segments":[],"categories_sizes":[],"default_left":[0,0,0,0,0,0,0,0,0,0,0,0,0,0,0,0,0,0,0,0,0,0,0,0,0,0,0,0,0,0,0,0,0,0,0,0,0,0,0,0,0,0,0,0,0,0,0,0,0,0,0,0,0,0,0,0,0,0,0,0,0,0,0,0,0,0,0,0,0,0,0,0,0,0,0,0,0,0,0,0,0,0,0,0,0,0,0,0,0,0,0,0,0,0,0,0,0],"id":12,"left_children":[1,3,5,7,9,11,13,15,17,19,21,23,25,27,29,31,-1,33,35,37,39,41,43,45,-1,47,49,51,53,55,57,59,-1,61,-1,-1,63,65,-1,67,69,71,73,-1,-1,75,77,79,81,83,85,87,89,91,93,95,-1,-1,-1,-1,-1,-1,-1,-1,-1,-1,-1,-1,-1,-1,-1,-1,-1,-1,-1,-1,-1,-1,-1,-1,-1,-1,-1,-1,-1,-1,-1,-1,-1,-1,-1,-1,-1,-1,-1,-1,-1],"loss_changes":[4.9933582E2,1.7060913E1,2.77547E1,7.5628486E0,4.151245E0,1.8401802E1,2.716217E0,1.2624431E0,5.0398235E0,7.388916E-1,2.9706268E0,3.3940067E0,2.7087348E0,4.403534E-1,2.458002E0,4.965806E-1,0E0,9.512296E-1,2.4626834E0,3.5964966E-2,4.6096802E-1,7.8450584E-1,8.901974E-1,2.7720318E0,0E0,1.9909105E0,3.1971984E0,9.037628E-1,6.329346E-2,1.2458436E0,1.1096448E0,7.0699185E-1,0E0,1.6004547E0,0E0,0E0,1.9075086E0,1.5614319E0,0E0,1.2425079E0,4.7651672E-1,9.822159E-1,1.3038063E0,0E0,0E0,4.9049664E-1,2.572912E0,1.6174984E0,2.451499E0,1.93911E0,2.598668E0,5.6045532E-2,1.7589645E0,3.0846637E-1,1.3150024E-1,6.588852E-1,0E0,0E0,0E0,0E0,0E0,0E0,0E0,0E0,0E0,0E0,0E0,0E0,0E0,0E0,0E0,0E0,0E0,0E0,0E0,0E0,0E0,0E0,0E0,0E0,0E0,0E0,0E0,0E0,0E0,0E0,0E0,0E0,0E0,0E0,0E0,0E0,0E0,0E0,0E0,0E0,0E0],"parents":[2147483647,0,0,1,1,2,2,3,3,4,4,5,5,6,6,7,7,8,8,9,9,10,10,11,11,12,12,13,13,14,14,15,15,17,17,18,18,19,19,20,20,21,21,22,22,23,23,25,25,26,26,27,27,28,28,29,29,30,30,31,31,33,33,36,36,37,37,39,39,40,40,41,41,42,42,45,45,46,46,47,47,48,48,49,49,50,50,51,51,52,52,53,53,54,54,55,55],"right_children":[2,4,6,8,10,12,14,16,18,20,22,24,26,28,30,32,-1,34,36,38,40,42,44,46,-1,48,50,52,54,56,58,60,-1,62,-1,-1,64,66,-1,68,70,72,74,-1,-1,76,78,80,82,84,86,88,90,92,94,96,-1,-1,-1,-1,-1,-1,-1,-1,-1,-1,-1,-1,-1,-1,-1,-1,-1,-1,-1,-1,-1,-1,-1,-1,-1,-1,-1,-1,-1,-1,-1,-1,-1,-1,-1,-1,-1,-1,-1,-1,-1],"split_conditions":[2.482515E-1,3.78828E-1,8.2860965E-1,5.248278E-2,9.2672996E-2,9.7530055E-1,9.9885607E-1,2.2166616E-1,4.5788217E-1,5.489162E-2,6.437384E-2,4.9896526E-1,4.4161847E-1,9.575516E-1,9.718517E-1,3.4844931E-3,2.5357518E-2,1.3163581E-2,1.8758943E-2,7.034869E-1,4.2382344E-3,3.8654834E-4,5.606166E-2,6.2345564E-2,6.528348E-2,4.988577E-1,2.4033886E-4,1.7572618E-1,1.3280323E-3,6.898244E-4,9.993375E-1,3.06037E-2,-6.4812146E-2,8.879266E-3,6.976038E-2,-6.647181E-2,4.7522712E-2,6.918629E-1,-6.7640744E-2,3.895385E-3,5.6522574E-2,5.032815E-1,5.00446E-1,5.9953194E-2,-2.1122241E-2,7.616315E-4,3.5632837E-1,9.906963E-1,3.020994E-1,1.5300114E-4,3.2463572E-3,8.094809E-4,2.2779429E-1,9.9949634E-1,9.9819666E-1,3.8310504E-4,6.701157E-2,-6.460731E-2,2.068328E-2,-4.799924E-2,2.6568368E-2,5.842324E-2,-3.7933078E-2,4.8761945E-2,-1.9766621E-2,-6.2176973E-2,1.7805614E-2,4.2613868E-2,-4.478221E-2,-3.3790357E-2,-5.777025E-2,-5.695541E-2,7.2390134E-3,-3.1884585E-2,-7.0739694E-2,9.704168E-3,5.420956E-2,4.911338E-3,4.9047705E-2,1.9350776E-2,-4.9232334E-2,-3.1756353E-2,6.718322E-2,1.436384E-2,-5.4678954E-2,3.264415E-2,-6.1285544E-2,5.0339438E-2,6.60494E-2,-1.3454819E-2,5.085672E-2,4.9869433E-2,-4.6890546E-3,6.78974E-2,2.539965E-2,3.2890987E-2,-2.7893672E-2],"split_indices":[1,7,1,1,1,7,7,2,6,1,5,5,1,1,1,6,0,4,4,4,4,5,2,4,0,6,5,4,2,6,7,1,0,4,0,0,7,4,0,2,1,6,6,0,0,5,4,7,1,5,5,5,4,6,7,6,0,0,0,0,0,0,0,0,0,0,0,0,0,0,0,0,0,0,0,0,0,0,0,0,0,0,0,0,0,0,0,0,0,0,0,0,0,0,0,0,0],"split_type":[0,0,0,0,0,0,0,0,0,0,0,0,0,0,0,0,0,0,0,0,0,0,0,0,0,0,0,0,0,0,0,0,0,0,0,0,0,0,0,0,0,0,0,0,0,0,0,0,0,0,0,0,0,0,0,0,0,0,0,0,0,0,0,0,0,0,0,0,0,0,0,0,0,0,0,0,0,0,0,0,0,0,0,0,0,0,0,0,0,0,0,0,0,0,0,0,0],"sum_hessian":[1.7392026E3,8.9218866E2,8.470139E2,6.0071785E1,8.321169E2,2.460605E2,6.009534E2,2.0616467E1,3.9455322E1,6.88254E2,1.4386284E2,1.5916539E2,8.68951E1,5.826821E2,1.827132E1,1.9160715E1,1.4557512E0,1.9462048E1,1.9993273E1,4.9924323E2,1.8901083E2,1.3956787E2,4.2949667E0,1.077609E2,5.1404484E1,4.1322735E1,4.5572372E1,1.6903845E2,4.1364365E2,1.352354E1,4.7477818E0,3.2494159E0,1.5911299E1,5.0185103E0,1.4443538E1,5.088261E0,1.4905012E1,2.9644974E2,2.0279347E2,6.487501E0,1.8252333E2,5.8752903E1,8.0814964E1,2.8345072E0,1.4604592E0,4.702904E1,6.0731865E1,3.303193E1,8.290806E0,1.620495E1,2.936742E1,1.2559118E2,4.3447273E1,3.7084744E0,4.0993518E2,5.177018E0,8.346521E0,2.8563027E0,1.8914787E0,1.774069E0,1.4753468E0,2.745844E0,2.2726665E0,5.8614225E0,9.043589E0,2.9438705E2,2.0626884E0,1.3309926E0,5.1565084E0,1.3947179E1,1.6857616E2,5.648759E1,2.2653105E0,7.079062E1,1.0024349E1,3.1374316E0,4.389161E1,4.2367012E1,1.8364853E1,3.3395538E0,2.9692377E1,4.9053173E0,3.3854887E0,5.7771854E0,1.0427765E1,2.700115E1,2.3662705E0,2.162876E1,1.03962425E2,4.3447804E0,3.9102493E1,2.4565294E0,1.251945E0,4.0764758E2,2.2876072E0,2.7867608E0,2.3902574E0],"tree_param":{"num_deleted":"0","num_feature":"8","num_nodes":"97","size_leaf_vector":"1"}},{"base_weights":[2.5749816E-2,5.4603636E-1,-5.193402E-1,5.76549E-1,4.0260166E-2,-2.5184178E-1,-6.261769E-1,6.394823E-1,4.785934E-1,3.8710636E-1,-4.5123738E-1,1.725522E-2,-4.5308787E-1,-6.473189E-1,-4.753225E-1,6.409039E-1,2.6654232E-1,5.985262E-1,4.1896644E-1,-4.7412446E-1,4.9146664E-1,-1.4973725E-1,-5.8523995E-1,1.9466749E-1,-4.071417E-1,-6.2047446E-1,-2.9763308E-1,-5.71949E-1,-6.683921E-2,5.169464E-2,-5.056621E-1,2.9962206E-1,6.423482E-1,4.217007E-2,-2.5490887E-4,3.777808E-1,6.246773E-1,4.757052E-1,2.693077E-1,-1.6094353E-2,-5.8535684E-2,5.6928366E-1,2.2749381E-1,-4.4789115E-1,5.4324288E-2,-6.2367696E-1,-2.039507E-2,4.1278726E-1,2.2114685E-3,2.3404843E-1,-4.8147026E-1,-1.5268663E-1,-6.39086E-2,9.272448E-2,-4.211599E-1,-5.8604234E-1,3.9019495E-2,-3.6624676E-1,-6.759474E-2,4.5416486E-2,-9.788406E-4,6.845101E-2,6.1878722E-2,5.835086E-2,2.292066E-2,6.3223794E-2,7.273506E-3,5.9989344E-2,4.0875297E-2,-1.433976E-3,4.0207483E-2,6.451192E-2,4.11277E-3,-1.8170347E-2,6.2894635E-2,-6.693818E-2,3.4335833E-3,-6.900233E-2,-3.4106504E-2,2.5067234E-2,8.1108086E-2,3.795687E-2,-2.9450277E-2,5.5998623E-2,-1.8483672E-2,-6.1398517E-2,-2.951762E-2,-4.885305E-2,2.4086563E-2,7.8253195E-2,-1.3489728E-2,1.0775569E-2,-4.6584185E-2,4.511205E-3,-5.999585E-2,-1.6956886E-2,-5.6015402E-2],"categories":[],"categories_nodes":[],"categories_segments":[],"categories_sizes":[],"default_left":[0,0,0,0,0,0,0,0,0,0,0,0,0,0,0,0,0,0,0,0,0,0,0,0,0,0,0,0,0,0,0,0,0,0,0,0,0,0,0,0,0,0,0,0,0,0,0,0,0,0,0,0,0,0,0,0,0,0,0,0,0,0,0,0,0,0,0,0,0,0,0,0,0,0,0,0,0,0,0,0,0,0,0,0,0,0,0,0,0,0,0,0,0,0,0,0,0],"id":13,"left_children":[1,3,5,7,9,11,13,15,17,19,21,23,25,27,29,31,33,35,37,39,41,43,45,47,49,51,53,55,-1,-1,57,59,61,-1,-1,63,65,67,69,-1,-1,71,73,75,-1,77,-1,79,81,83,85,87,-1,89,91,93,-1,95,-1,-1,-1,-1,-1,-1,-1,-1,-1,-1,-1,-1,-1,-1,-1,-1,-1,-1,-1,-1,-1,-1,-1,-1,-1,-1,-1,-1,-1,-1,-1,-1,-1,-1,-1,-1,-1,-1,-1],"loss_changes":[4.9427448E2,1.3737732E1,2.416719E1,4.877716E0,9.006629E0,1.3253842E1,1.6300354E0,9.899902E-2,2.1298218E0,3.0113297E0,7.9701567E-1,8.031636E0,3.4576778E0,4.5968628E-1,2.6230087E0,5.7128906E-2,1.5324873E-1,3.8868332E-1,1.7882423E0,3.9905727E-2,4.4692993E-1,1.9130125E0,8.992386E-2,3.154151E0,1.6120172E0,4.8121262E-1,3.631279E0,1.8933105E0,0E0,0E0,1.5715141E0,1.9609785E-1,7.6431274E-2,0E0,0E0,2.9392672E-1,3.5136795E-1,1.1045685E0,2.4289188E0,0E0,0E0,8.1487656E-1,1.4374409E0,6.8501866E-1,0E0,7.8930855E-3,0E0,2.0711508E0,4.6950417E0,6.415662E-1,5.228009E-1,6.2755054E-1,0E0,3.0459995E0,1.3918438E0,1.0932617E0,0E0,1.5950031E0,0E0,0E0,0E0,0E0,0E0,0E0,0E0,0E0,0E0,0E0,0E0,0E0,0E0,0E0,0E0,0E0,0E0,0E0,0E0,0E0,0E0,0E0,0E0,0E0,0E0,0E0,0E0,0E0,0E0,0E0,0E0,0E0,0E0,0E0,0E0,0E0,0E0,0E0,0E0],"parents":[2147483647,0,0,1,1,2,2,3,3,4,4,5,5,6,6,7,7,8,8,9,9,10,10,11,11,12,12,13,13,14,14,15,15,16,16,17,17,18,18,19,19,20,20,21,21,22,22,23,23,24,24,25,25,26,26,27,27,30,30,31,31,32,32,35,35,36,36,37,37,38,38,41,41,42,42,43,43,45,45,47,47,48,48,49,49,50,50,51,51,53,53,54,54,55,55,57,57],"right_children":[2,4,6,8,10,12,14,16,18,20,22,24,26,28,30,32,34,36,38,40,42,44,46,48,50,52,54,56,-1,-1,58,60,62,-1,-1,64,66,68,70,-1,-1,72,74,76,-1,78,-1,80,82,84,86,88,-1,90,92,94,-1,96,-1,-1,-1,-1,-1,-1,-1,-1,-1,-1,-1,-1,-1,-1,-1,-1,-1,-1,-1,-1,-1,-1,-1,-1,-1,-1,-1,-1,-1,-1,-1,-1,-1,-1,-1,-1,-1,-1,-1],"split_conditions":[2.482515E-1,9.821678E-2,8.2860965E-1,5.489162E-2,7.3438846E-2,1.6284985E-3,3.5632837E-1,9.9300474E-1,3.4129596E-4,9.354997E-4,9.725319E-2,4.9980867E-1,5.2932703E-1,9.4537425E-1,1.8587628E-4,1.3096802E-4,2.7503874E-2,5.799288E-2,4.9234784E-1,3.4552474E-2,5.916174E-2,2.2663641E-1,2.0600489E-1,4.183616E-1,3.020994E-1,2.22691E-3,6.559264E-1,9.9949634E-1,-6.683921E-2,5.169464E-2,1.2478151E-2,1.994145E-3,2.3866452E-1,4.217007E-2,-2.5490887E-4,3.2723052E-3,9.559176E-1,8.094809E-4,4.992917E-1,-1.6094353E-2,-5.8535684E-2,8.724279E-1,1.4783154E-1,2.79409E-2,5.4324288E-2,9.974253E-1,-2.039507E-2,5.93879E-4,2.6007282E-4,1.0733828E-2,8.146343E-1,4.183616E-1,-6.39086E-2,8.779754E-3,3.0206942E-3,1.9474478E-3,3.9019495E-2,9.606904E-1,-6.759474E-2,4.5416486E-2,-9.788406E-4,6.845101E-2,6.1878722E-2,5.835086E-2,2.292066E-2,6.3223794E-2,7.273506E-3,5.9989344E-2,4.0875297E-2,-1.433976E-3,4.0207483E-2,6.451192E-2,4.11277E-3,-1.8170347E-2,6.2894635E-2,-6.693818E-2,3.4335833E-3,-6.900233E-2,-3.4106504E-2,2.5067234E-2,8.1108086E-2,3.795687E-2,-2.9450277E-2,5.5998623E-2,-1.8483672E-2,-6.1398517E-2,-2.951762E-2,-4.885305E-2,2.4086563E-2,7.8253195E-2,-1.3489728E-2,1.0775569E-2,-4.6584185E-2,4.511205E-3,-5.999585E-2,-1.6956886E-2,-5.6015402E-2],"split_indices":[1,5,1,1,1,5,4,3,5,6,1,6,3,1,6,6,1,1,6,3,1,6,1,1,1,5,3,6,0,0,5,2,3,0,0,2,6,5,6,0,0,4,4,2,0,5,0,5,5,2,3,1,0,2,2,2,0,1,0,0,0,0,0,0,0,0,0,0,0,0,0,0,0,0,0,0,0,0,0,0,0,0,0,0,0,0,0,0,0,0,0,0,0,0,0,0,0],"split_type":[0,0,0,0,0,0,0,0,0,0,0,0,0,0,0,0,0,0,0,0,0,0,0,0,0,0,0,0,0,0,0,0,0,0,0,0,0,0,0,0,0,0,0,0,0,0,0,0,0,0,0,0,0,0,0,0,0,0,0,0,0,0,0,0,0,0,0,0,0,0,0,0,0,0,0,0,0,0,0,0,0,0,0,0,0,0,0,0,0,0,0,0,0,0,0,0,0],"sum_hessian":[1.7408395E3,8.906835E2,8.50156E2,8.398753E2,5.0808193E1,2.4359598E2,6.0656006E2,5.079835E2,3.3189178E2,2.9911947E1,2.0896246E1,1.046188E2,1.3897719E2,5.291144E2,7.744567E1,5.0533878E2,2.6447256E0,1.0721116E2,2.2468063E2,2.8499177E0,2.7062029E1,7.0812197E0,1.3815025E1,7.4159096E1,3.0459705E1,6.547999E1,7.34972E1,1.21762474E2,4.073519E2,1.8218728E0,7.56238E1,3.0080235E0,5.0233075E2,1.3177699E0,1.3269556E0,1.2991787E1,9.4219376E1,1.6133614E2,6.334451E1,1.3882198E0,1.4616978E0,2.0007408E1,7.0546227E0,5.198322E0,1.8828981E0,1.1972405E1,1.8426198E0,3.4225185E1,3.993391E1,2.9409523E0,2.7518753E1,2.8576999E0,6.2622288E1,1.7727097E1,5.5770103E1,1.20389915E2,1.3725541E0,4.3313286E1,3.2310513E1,1.694049E0,1.3139746E0,1.7002385E2,3.323069E2,4.2204375E0,8.771349E0,9.2802666E1,1.4167066E0,5.3724216E1,1.07611916E2,2.048078E1,4.2863728E1,1.7301683E1,2.705724E0,3.76469E0,3.2899327E0,3.296232E0,1.9020898E0,8.528623E0,3.4437833E0,2.548255E1,8.742638E0,1.7455278E1,2.247863E1,1.4645361E0,1.4764161E0,1.4738884E1,1.2779868E1,1.4116827E0,1.4460171E0,3.7933853E0,1.393371E1,4.234401E0,5.15357E1,2.5488203E0,1.17841095E2,2.2433613E1,2.0879673E1],"tree_param":{"num_deleted":"0","num_feature":"8","num_nodes":"97","size_leaf_vector":"1"}},{"base_weights":[-2.1489479E-2,-4.972263E-1,5.325174E-1,2.6838033E-2,-5.485501E-1,5.8686626E-1,1.4163007E-1,4.018239E-1,-1.4366847E-1,-6.2081325E-1,-4.5016754E-1,6.2394506E-1,4.1482E-1,-2.1279052E-1,3.457475E-1,6.081223E-1,-4.1981092E-1,6.8192214E-2,-2.3770122E-1,-1.4210807E-2,-6.2236484E-2,-4.774481E-1,-1.3855262E-1,5.4897875E-1,6.546687E-2,6.0279644E-1,2.930921E-1,-3.6607674E-1,3.8834235E-1,1.2213642E-2,4.6199578E-1,6.712303E-2,1.3402295E-2,-6.203701E-2,1.01183755E-2,-5.79668E-1,-7.756083E-2,-6.010557E-1,-4.346478E-1,-4.587038E-1,4.751935E-2,5.9467554E-1,3.8239837E-1,1.8725469E-3,6.19643E-1,5.3777397E-1,1.3240923E-1,-8.0846086E-2,-4.695718E-1,5.8081967E-1,-2.6291294E-2,-2.2444116E-1,5.1069164E-1,-2.1166903E-1,5.101125E-1,-6.307828E-2,-3.8068576E-4,4.3154493E-2,-2.4315814E-2,-6.106625E-2,-1.0437298E-2,-1.8921735E-2,-4.7613896E-2,-5.4661715E-3,-6.2251914E-2,7.517101E-2,-4.8620696E-3,6.0673397E-2,2.0679746E-2,-8.671914E-2,4.4936065E-2,2.4761884E-2,6.359426E-2,-4.6067295E-4,5.6293856E-2,2.721083E-3,5.024286E-2,-2.7326664E-2,5.3257268E-2,-5.3800363E-2,-9.563214E-3,6.785983E-2,1.5352068E-2,-3.424542E-2,2.5817785E-2,9.363561E-3,6.2473316E-2,4.2734075E-2,-7.332079E-2,2.2889921E-2,5.6155432E-2],"categories":[],"categories_nodes":[],"categories_segments":[],"categories_sizes":[],"default_left":[0,0,0,0,0,0,0,0,0,0,0,0,0,0,0,0,0,0,0,0,0,0,0,0,0,0,0,0,0,0,0,0,0,0,0,0,0,0,0,0,0,0,0,0,0,0,0,0,0,0,0,0,0,0,0,0,0,0,0,0,0,0,0,0,0,0,0,0,0,0,0,0,0,0,0,0,0,0,0,0,0,0,0,0,0,0,0,0,0,0,0],"id":14,"left_children":[1,3,5,7,9,11,13,15,17,19,21,23,25,27,29,31,33,-1,35,-1,-1,37,39,41,-1,43,45,47,49,51,53,-1,-1,-1,-1,55,57,59,61,63,65,67,69,-1,71,73,75,77,79,81,-1,83,85,87,89,-1,-1,-1,-1,-1,-1,-1,-1,-1,-1,-1,-1,-1,-1,-1,-1,-1,-1,-1,-1,-1,-1,-1,-1,-1,-1,-1,-1,-1,-1,-1,-1,-1,-1,-1,-1],"loss_changes":[4.402953E2,2.4188263E1,1.6313446E1,5.244354E0,5.540497E0,4.061722E0,6.9846106E0,4.597834E0,4.5483932E0,2.6013184E-1,2.9117584E0,9.193573E-1,2.639368E0,3.4161596E0,2.3595037E0,5.349431E-1,6.618365E-1,0E0,2.7734044E0,0E0,0E0,1.4406509E0,1.7855487E0,1.0483398E0,0E0,4.5503807E-1,2.94211E0,8.129864E-1,1.1184838E0,2.0956373E0,1.5733471E0,0E0,0E0,0E0,0E0,4.762001E-1,3.1572871E0,3.185978E-1,2.3799934E0,6.924982E-1,1.3655725E0,4.8122406E-1,3.6428819E0,0E0,1.2185669E-1,4.1279507E-1,1.8387568E0,1.1940016E0,4.8448086E-1,1.5730762E-1,0E0,7.7652764E-1,2.1314228E-1,1.5532316E0,4.8608017E-1,0E0,0E0,0E0,0E0,0E0,0E0,0E0,0E0,0E0,0E0,0E0,0E0,0E0,0E0,0E0,0E0,0E0,0E0,0E0,0E0,0E0,0E0,0E0,0E0,0E0,0E0,0E0,0E0,0E0,0E0,0E0,0E0,0E0,0E0,0E0,0E0],"parents":[2147483647,0,0,1,1,2,2,3,3,4,4,5,5,6,6,7,7,8,8,9,9,10,10,11,11,12,12,13,13,14,14,15,15,16,16,18,18,21,21,22,22,23,23,25,25,26,26,27,27,28,28,29,29,30,30,35,35,36,36,37,37,38,38,39,39,40,40,41,41,42,42,44,44,45,45,46,46,47,47,48,48,49,49,51,51,52,52,53,53,54,54],"right_children":[2,4,6,8,10,12,14,16,18,20,22,24,26,28,30,32,34,-1,36,-1,-1,38,40,42,-1,44,46,48,50,52,54,-1,-1,-1,-1,56,58,60,62,64,66,68,70,-1,72,74,76,78,80,82,-1,84,86,88,90,-1,-1,-1,-1,-1,-1,-1,-1,-1,-1,-1,-1,-1,-1,-1,-1,-1,-1,-1,-1,-1,-1,-1,-1,-1,-1,-1,-1,-1,-1,-1,-1,-1,-1,-1,-1],"split_conditions":[3.1767294E-1,3.9197868E-1,9.9469286E-1,8.5632974E-1,5.489162E-2,2.0418297E-1,6.2054616E-1,7.4646807E-1,9.354997E-4,4.5797285E-1,2.2012662E-2,9.575516E-1,1.3428466E-1,4.9840742E-1,8.260493E-4,3.78828E-1,5.4641623E-2,6.8192214E-2,1.8758943E-2,-1.4210807E-2,-6.2236484E-2,1.4523246E-3,6.2345564E-2,1.9980796E-1,6.546687E-2,1.2796348E-3,4.101651E-2,4.7073132E-1,4.1209953E-4,9.994861E-1,5.1230197E-3,6.712303E-2,1.3402295E-2,-6.203701E-2,1.01183755E-2,9.672336E-1,1.00157455E-1,9.433858E-1,8.1961596E-1,9.044096E-1,2.5693396E-2,9.990237E-1,2.2143295E-1,1.8725469E-3,2.1295938E-1,2.2301902E-1,3.5632837E-1,2.6007282E-4,1.0299998E-3,1.5774968E-1,-2.6291294E-2,9.4220847E-1,8.658261E-3,2.2663641E-1,2.2384182E-4,-6.307828E-2,-3.8068576E-4,4.3154493E-2,-2.4315814E-2,-6.106625E-2,-1.0437298E-2,-1.8921735E-2,-4.7613896E-2,-5.4661715E-3,-6.2251914E-2,7.517101E-2,-4.8620696E-3,6.0673397E-2,2.0679746E-2,-8.671914E-2,4.4936065E-2,2.4761884E-2,6.359426E-2,-4.6067295E-4,5.6293856E-2,2.721083E-3,5.024286E-2,-2.7326664E-2,5.3257268E-2,-5.3800363E-2,-9.563214E-3,6.785983E-2,1.5352068E-2,-3.424542E-2,2.5817785E-2,9.363561E-3,6.2473316E-2,4.2734075E-2,-7.332079E-2,2.2889921E-2,5.6155432E-2],"split_indices":[1,7,7,0,1,0,1,6,6,7,5,1,6,6,6,7,4,0,4,0,0,6,4,4,0,5,4,0,5,7,4,0,0,0,0,0,4,0,0,0,5,6,4,0,0,0,4,5,5,4,0,4,4,6,5,0,0,0,0,0,0,0,0,0,0,0,0,0,0,0,0,0,0,0,0,0,0,0,0,0,0,0,0,0,0,0,0,0,0,0,0],"split_type":[0,0,0,0,0,0,0,0,0,0,0,0,0,0,0,0,0,0,0,0,0,0,0,0,0,0,0,0,0,0,0,0,0,0,0,0,0,0,0,0,0,0,0,0,0,0,0,0,0,0,0,0,0,0,0,0,0,0,0,0,0,0,0,0,0,0,0,0,0,0,0,0,0,0,0,0,0,0,0,0,0,0,0,0,0,0,0,0,0,0,0],"sum_hessian":[1.6685555E3,8.977457E2,7.708098E2,8.0120186E1,8.1762555E2,6.762788E2,9.453099E1,2.46194E1,5.5500786E1,4.6832507E2,3.4930048E2,5.5421063E2,1.2206815E2,3.4530773E1,6.000022E1,1.9886185E1,4.733216E0,5.0357594E0,5.0465027E1,1.8121502E0,4.6651294E2,3.20693E2,2.8607468E1,1.6659181E2,3.8761887E2,4.642501E1,7.564314E1,2.782623E1,6.7045436E0,1.5792947E1,4.420727E1,1.7183115E1,2.7030704E0,3.279873E0,1.4533429E0,1.5259613E1,3.5205414E1,7.9127884E1,2.4156512E2,9.976659E0,1.8630808E1,1.28713E2,3.787881E1,1.360705E0,4.5064304E1,2.9053999E1,4.658914E1,7.882727E0,1.9943502E1,5.258544E0,1.4459994E0,1.1081635E1,4.711312E0,2.7204301E0,4.1486843E1,1.3927962E1,1.3316512E0,8.2465515E0,2.695886E1,7.7401306E1,1.7265785E0,3.5736332E1,2.0582878E2,3.2628028E0,6.713856E0,1.4189093E0,1.7211899E1,1.2428497E2,4.428023E0,1.3187649E0,3.6560047E1,2.571181E0,4.2493122E1,1.3244591E0,2.772954E1,3.711165E1,9.477494E0,6.422577E0,1.4601502E0,1.6487507E1,3.4559963E0,3.8007166E0,1.4578276E0,9.137662E0,1.9439734E0,1.4026843E0,3.3086276E0,1.3037007E0,1.4167293E0,7.2582684E0,3.4228577E1],"tree_param":{"num_deleted":"0","num_feature":"8","num_nodes":"91","size_leaf_vector":"1"}},{"base_weights":[1.5683234E-2,4.792686E-1,-5.2759635E-1,-2.8506035E-2,5.2839833E-1,-6.0541373E-1,-2.6160306E-1,-4.8355395E-1,1.7668176E-1,3.2726964E-1,5.761293E-1,-6.1698616E-1,-2.2586173E-1,-4.017424E-1,1.1926683E-2,-6.4100367E-1,2.2723849E-1,-6.4110406E-2,2.5994644E-1,5.48267E-2,3.8518694E-1,6.067228E-1,4.9413237E-1,-5.2865547E-1,-6.4723514E-2,-6.2481564E-2,3.4662548E-3,-5.9737086E-1,-2.683693E-1,-2.2989546E-1,2.124807E-1,-7.0948176E-2,-5.855645E-3,5.649168E-2,-2.3333382E-2,1.2333415E-1,5.221154E-1,-2.4699178E-1,3.576288E-1,4.06121E-1,-2.8078339E-1,6.5813705E-2,5.8185464E-1,1.3069378E-1,5.1366943E-1,-6.0137653E-1,-3.9956245E-1,2.927728E-1,-2.844383E-1,-6.6760406E-2,-3.9838213E-1,-3.6346325E-1,8.627061E-2,-9.590143E-2,-6.231658E-1,-8.144466E-2,5.276336E-1,2.7081108E-2,-4.145171E-2,5.640591E-2,8.2988655E-3,-4.3139387E-2,1.3724178E-2,4.802537E-2,-1.05672E-3,4.7207545E-2,2.310033E-2,-5.850316E-2,1.2501298E-2,-1.1896721E-2,5.8725804E-2,3.139094E-2,-3.891815E-2,2.9110162E-2,5.2940577E-2,-6.4723745E-2,-3.1369306E-2,4.537873E-3,-4.4555888E-2,5.454495E-2,-4.4044416E-2,2.5100319E-2,-4.715935E-2,-1.8801903E-2,-6.2349584E-2,2.6238402E-2,-4.0002123E-2,8.670428E-2,-1.2045338E-2,4.408591E-2,-1.6908498E-2,-1.3496043E-2,-7.29661E-2,-3.3985544E-2,2.511268E-2,1.6478226E-2,7.455423E-2],"categories":[],"categories_nodes":[],"categories_segments":[],"categories_sizes":[],"default_left":[0,0,0,0,0,0,0,0,0,0,0,0,0,0,0,0,0,0,0,0,0,0,0,0,0,0,0,0,0,0,0,0,0,0,0,0,0,0,0,0,0,0,0,0,0,0,0,0,0,0,0,0,0,0,0,0,0,0,0,0,0,0,0,0,0,0,0,0,0,0,0,0,0,0,0,0,0,0,0,0,0,0,0,0,0,0,0,0,0,0,0,0,0,0,0,0,0],"id":15,"left_children":[1,3,5,7,9,11,13,15,17,19,21,23,25,27,29,31,33,-1,35,37,39,41,43,45,-1,-1,47,49,51,53,55,-1,-1,-1,-1,57,59,61,63,65,67,-1,69,71,73,75,77,79,81,-1,83,85,87,89,91,93,95,-1,-1,-1,-1,-1,-1,-1,-1,-1,-1,-1,-1,-1,-1,-1,-1,-1,-1,-1,-1,-1,-1,-1,-1,-1,-1,-1,-1,-1,-1,-1,-1,-1,-1,-1,-1,-1,-1,-1,-1],"loss_changes":[4.178589E2,2.2347458E1,1.5653748E1,7.547843E0,7.6477814E0,2.4532318E0,6.700015E0,2.9553714E0,3.9673657E0,2.4858131E0,1.3518372E0,1.1867218E0,1.7442983E0,2.8538055E0,2.9656382E0,7.886534E-1,9.547092E-1,0E0,1.77546E0,2.7404525E0,1.9383621E0,2.2450256E-1,1.241436E0,1.1812553E0,0E0,0E0,1.1732179E0,3.771248E-1,2.4091034E0,1.4023404E0,3.1364846E0,0E0,0E0,0E0,0E0,2.8949397E0,2.7162647E-1,1.1308502E0,6.7756677E-1,1.3609791E0,6.3849854E-1,0E0,1.3151627E0,1.1454014E0,4.5723343E-1,1.0487709E0,1.1978912E0,1.5407637E0,8.264554E-1,0E0,5.686648E-1,1.3814087E0,2.6411145E0,9.339088E-1,2.58667E-1,1.6448318E0,1.1619878E0,0E0,0E0,0E0,0E0,0E0,0E0,0E0,0E0,0E0,0E0,0E0,0E0,0E0,0E0,0E0,0E0,0E0,0E0,0E0,0E0,0E0,0E0,0E0,0E0,0E0,0E0,0E0,0E0,0E0,0E0,0E0,0E0,0E0,0E0,0E0,0E0,0E0,0E0,0E0,0E0],"parents":[2147483647,0,0,1,1,2,2,3,3,4,4,5,5,6,6,7,7,8,8,9,9,10,10,11,11,12,12,13,13,14,14,15,15,16,16,18,18,19,19,20,20,21,21,22,22,23,23,26,26,27,27,28,28,29,29,30,30,35,35,36,36,37,37,38,38,39,39,40,40,42,42,43,43,44,44,45,45,46,46,47,47,48,48,50,50,51,51,52,52,53,53,54,54,55,55,56,56],"right_children":[2,4,6,8,10,12,14,16,18,20,22,24,26,28,30,32,34,-1,36,38,40,42,44,46,-1,-1,48,50,52,54,56,-1,-1,-1,-1,58,60,62,64,66,68,-1,70,72,74,76,78,80,82,-1,84,86,88,90,92,94,96,-1,-1,-1,-1,-1,-1,-1,-1,-1,-1,-1,-1,-1,-1,-1,-1,-1,-1,-1,-1,-1,-1,-1,-1,-1,-1,-1,-1,-1,-1,-1,-1,-1,-1,-1,-1,-1,-1,-1,-1],"split_conditions":[3.1767294E-1,3.9197868E-1,2.0418297E-1,8.5632974E-1,9.0656734E-1,9.985397E-1,9.9152535E-1,7.4646807E-1,9.354997E-4,9.717614E-1,5.489162E-2,9.4537425E-1,9.069158E-2,1.3428466E-1,1.7572618E-1,3.78828E-1,3.0909916E-2,-6.4110406E-2,9.5391333E-1,4.0672305E-1,9.044096E-1,2.1928884E-3,6.6934735E-1,4.3664032E-1,-6.4723514E-2,-6.2481564E-2,5.748067E-1,5.4894334E-1,2.2143295E-1,9.993793E-1,4.9017695E-1,-7.0948176E-2,-5.855645E-3,5.649168E-2,-2.3333382E-2,6.1577797E-1,9.6510416E-1,9.243602E-1,9.4466466E-1,2.0600489E-1,5.872154E-1,6.5813705E-2,2.3412528E-3,9.395267E-1,5.6522574E-2,1.9980796E-1,5.154057E-1,9.993793E-1,2.5672818E-4,-6.6760406E-2,8.290441E-1,2.1295938E-1,2.5619158E-1,9.930026E-1,2.683253E-1,9.991646E-1,1.2783276E-1,2.7081108E-2,-4.145171E-2,5.640591E-2,8.2988655E-3,-4.3139387E-2,1.3724178E-2,4.802537E-2,-1.05672E-3,4.7207545E-2,2.310033E-2,-5.850316E-2,1.2501298E-2,-1.1896721E-2,5.8725804E-2,3.139094E-2,-3.891815E-2,2.9110162E-2,5.2940577E-2,-6.4723745E-2,-3.1369306E-2,4.537873E-3,-4.4555888E-2,5.454495E-2,-4.4044416E-2,2.5100319E-2,-4.715935E-2,-1.8801903E-2,-6.2349584E-2,2.6238402E-2,-4.0002123E-2,8.670428E-2,-1.2045338E-2,4.408591E-2,-1.6908498E-2,-1.3496043E-2,-7.29661E-2,-3.3985544E-2,2.511268E-2,1.6478226E-2,7.455423E-2],"split_indices":[1,7,0,0,0,7,7,6,6,7,1,1,4,6,4,7,4,0,0,6,0,6,7,7,0,0,4,3,4,7,0,0,0,0,0,4,3,7,7,1,3,0,6,0,1,4,7,7,6,0,3,0,4,7,0,7,3,0,0,0,0,0,0,0,0,0,0,0,0,0,0,0,0,0,0,0,0,0,0,0,0,0,0,0,0,0,0,0,0,0,0,0,0,0,0,0,0],"split_type":[0,0,0,0,0,0,0,0,0,0,0,0,0,0,0,0,0,0,0,0,0,0,0,0,0,0,0,0,0,0,0,0,0,0,0,0,0,0,0,0,0,0,0,0,0,0,0,0,0,0,0,0,0,0,0,0,0,0,0,0,0,0,0,0,0,0,0,0,0,0,0,0,0,0,0,0,0,0,0,0,0,0,0,0,0,0,0,0,0,0,0,0,0,0,0,0,0],"sum_hessian":[1.6571111E3,8.942E2,7.6291113E2,7.892274E1,8.152773E2,5.892482E2,1.7366286E2,2.4105959E1,5.4816776E1,1.578761E2,6.574012E2,5.712067E2,1.8041512E1,1.14520874E2,5.914198E1,1.981489E1,4.2910695E0,4.446434E0,5.0370342E1,2.8019419E1,1.2985667E2,4.741094E2,1.8329178E2,1.5042467E2,4.2078207E2,5.9558225E0,1.2085689E1,4.5015007E1,6.950587E1,2.6746061E1,3.2395916E1,1.7535183E1,2.279708E0,2.3451324E0,1.9459372E0,3.408145E1,1.6288889E1,1.4124807E1,1.3894612E1,1.26277466E2,3.5792089E0,1.4625839E2,3.27851E2,9.742693E0,1.7354909E2,9.388091E1,5.654376E1,6.019733E0,6.065955E0,3.1531103E1,1.3483903E1,5.478958E1,1.4716285E1,2.0876823E1,5.869239E0,1.7146196E1,1.5249721E1,2.713706E1,6.9443927E0,1.46089945E1,1.6798941E0,9.461357E0,4.6634502E0,1.0194925E1,3.6996865E0,9.0497635E1,3.5779827E1,1.7931193E0,1.7860895E0,2.3475966E0,3.2550342E2,7.4968276E0,2.245865E0,1.2747852E1,1.6080124E2,7.9894714E1,1.39861965E1,5.298896E0,5.124486E1,4.6673775E0,1.3523556E0,1.4827454E0,4.58321E0,7.9190073E0,5.5648956E0,2.6829047E0,5.2106674E1,2.4120502E0,1.23042345E1,1.9020833E0,1.897474E1,1.4570382E0,4.412201E0,9.636587E0,7.509609E0,6.3808393E0,8.86888E0],"tree_param":{"num_deleted":"0","num_feature":"8","num_nodes":"97","size_leaf_vector":"1"}},{"base_weights":[-2.237049E-2,-4.7912353E-1,4.9306092E-1,-2.3638457E-2,-5.175934E-1,5.9089214E-1,2.1749963E-1,3.7795025E-1,-1.707334E-1,-3.4570017E-1,-5.5657303E-1,6.223682E-1,4.384015E-1,3.815991E-1,-1.18161865E-1,-9.908587E-2,6.823715E-2,8.249232E-2,-3.4538805E-1,-1.304919E-1,-4.3756646E-1,-5.990559E-1,-4.9353266E-1,5.342272E-1,6.3188724E-2,2.180596E-2,4.6159655E-1,5.3278166E-1,2.696326E-1,6.661659E-2,-2.8540227E-1,1.4377354E-1,-5.6012858E-2,2.8473824E-1,-4.5370752E-1,-4.0548116E-1,3.4431364E-2,-2.8676602E-1,3.161898E-1,-1.4909363E-1,-4.8406106E-1,-6.09614E-1,-4.2162812E-1,-3.6803693E-1,-5.378412E-1,5.8965546E-1,-3.370169E-1,3.5394672E-1,-6.0555395E-2,1.0509538E-1,4.8995188E-1,1.350879E-1,5.746087E-1,-3.768925E-1,3.102337E-1,2.1827863E-1,-2.1939392E-1,1.4299533E-1,-4.1245463E-1,-4.2293843E-2,3.9593305E-2,3.6515538E-3,5.7347655E-2,-7.022454E-3,-5.545297E-2,2.7592784E-2,-4.780148E-2,-4.664575E-2,9.503194E-3,7.786216E-2,-8.28487E-3,-3.3931416E-2,2.4853436E-2,-6.028543E-2,-3.6981665E-2,-6.2717356E-2,-5.3180218E-2,1.1395959E-2,-5.2546818E-2,-5.4326933E-2,-2.5740966E-2,-5.464803E-2,1.5184668E-2,2.215372E-3,6.0833197E-2,3.434435E-2,-7.6277375E-2,-4.4063814E-3,5.0426226E-2,5.5340387E-2,-7.530547E-2,4.2226758E-2,6.703249E-2,5.088327E-2,-4.0932197E-2,4.601278E-2,6.671745E-2,-7.0987575E-2,1.426117E-2,5.6649357E-2,2.0960784E-2,3.8117945E-2,-2.026928E-3,1.0170947E-2,-4.6056498E-2,-2.8859464E-2,4.608839E-2,1.6159138E-2,-4.8626747E-2],"categories":[],"categories_nodes":[],"categories_segments":[],"categories_sizes":[],"default_left":[0,0,0,0,0,0,0,0,0,0,0,0,0,0,0,0,0,0,0,0,0,0,0,0,0,0,0,0,0,0,0,0,0,0,0,0,0,0,0,0,0,0,0,0,0,0,0,0,0,0,0,0,0,0,0,0,0,0,0,0,0,0,0,0,0,0,0,0,0,0,0,0,0,0,0,0,0,0,0,0,0,0,0,0,0,0,0,0,0,0,0,0,0,0,0,0,0,0,0,0,0,0,0,0,0,0,0,0,0],"id":16,"left_children":[1,3,5,7,9,11,